tree
version=v3
num_class=1
num_tree_per_iteration=1
label_index=0
max_feature_idx=4327
objective=regression
feature_names=Column_0 Column_1 Column_2 Column_3 Column_4 Column_5 Column_6 Column_7 Column_8 Column_9 Column_10 Column_11 Column_12 Column_13 Column_14 Column_15 Column_16 Column_17 Column_18 Column_19 Column_20 Column_21 Column_22 Column_23 Column_24 Column_25 Column_26 Column_27 Column_28 Column_29 Column_30 Column_31 Column_32 Column_33 Column_34 Column_35 Column_36 Column_37 Column_38 Column_39 Column_40 Column_41 Column_42 Column_43 Column_44 Column_45 Column_46 Column_47 Column_48 Column_49 Column_50 Column_51 Column_52 Column_53 Column_54 Column_55 Column_56 Column_57 Column_58 Column_59 Column_60 Column_61 Column_62 Column_63 Column_64 Column_65 Column_66 Column_67 Column_68 Column_69 Column_70 Column_71 Column_72 Column_73 Column_74 Column_75 Column_76 Column_77 Column_78 Column_79 Column_80 Column_81 Column_82 Column_83 Column_84 Column_85 Column_86 Column_87 Column_88 Column_89 Column_90 Column_91 Column_92 Column_93 Column_94 Column_95 Column_96 Column_97 Column_98 Column_99 Column_100 Column_101 Column_102 Column_103 Column_104 Column_105 Column_106 Column_107 Column_108 Column_109 Column_110 Column_111 Column_112 Column_113 Column_114 Column_115 Column_116 Column_117 Column_118 Column_119 Column_120 Column_121 Column_122 Column_123 Column_124 Column_125 Column_126 Column_127 Column_128 Column_129 Column_130 Column_131 Column_132 Column_133 Column_134 Column_135 Column_136 Column_137 Column_138 Column_139 Column_140 Column_141 Column_142 Column_143 Column_144 Column_145 Column_146 Column_147 Column_148 Column_149 Column_150 Column_151 Column_152 Column_153 Column_154 Column_155 Column_156 Column_157 Column_158 Column_159 Column_160 Column_161 Column_162 Column_163 Column_164 Column_165 Column_166 Column_167 Column_168 Column_169 Column_170 Column_171 Column_172 Column_173 Column_174 Column_175 Column_176 Column_177 Column_178 Column_179 Column_180 Column_181 Column_182 Column_183 Column_184 Column_185 Column_186 Column_187 Column_188 Column_189 Column_190 Column_191 Column_192 Column_193 Column_194 Column_195 Column_196 Column_197 Column_198 Column_199 Column_200 Column_201 Column_202 Column_203 Column_204 Column_205 Column_206 Column_207 Column_208 Column_209 Column_210 Column_211 Column_212 Column_213 Column_214 Column_215 Column_216 Column_217 Column_218 Column_219 Column_220 Column_221 Column_222 Column_223 Column_224 Column_225 Column_226 Column_227 Column_228 Column_229 Column_230 Column_231 Column_232 Column_233 Column_234 Column_235 Column_236 Column_237 Column_238 Column_239 Column_240 Column_241 Column_242 Column_243 Column_244 Column_245 Column_246 Column_247 Column_248 Column_249 Column_250 Column_251 Column_252 Column_253 Column_254 Column_255 Column_256 Column_257 Column_258 Column_259 Column_260 Column_261 Column_262 Column_263 Column_264 Column_265 Column_266 Column_267 Column_268 Column_269 Column_270 Column_271 Column_272 Column_273 Column_274 Column_275 Column_276 Column_277 Column_278 Column_279 Column_280 Column_281 Column_282 Column_283 Column_284 Column_285 Column_286 Column_287 Column_288 Column_289 Column_290 Column_291 Column_292 Column_293 Column_294 Column_295 Column_296 Column_297 Column_298 Column_299 Column_300 Column_301 Column_302 Column_303 Column_304 Column_305 Column_306 Column_307 Column_308 Column_309 Column_310 Column_311 Column_312 Column_313 Column_314 Column_315 Column_316 Column_317 Column_318 Column_319 Column_320 Column_321 Column_322 Column_323 Column_324 Column_325 Column_326 Column_327 Column_328 Column_329 Column_330 Column_331 Column_332 Column_333 Column_334 Column_335 Column_336 Column_337 Column_338 Column_339 Column_340 Column_341 Column_342 Column_343 Column_344 Column_345 Column_346 Column_347 Column_348 Column_349 Column_350 Column_351 Column_352 Column_353 Column_354 Column_355 Column_356 Column_357 Column_358 Column_359 Column_360 Column_361 Column_362 Column_363 Column_364 Column_365 Column_366 Column_367 Column_368 Column_369 Column_370 Column_371 Column_372 Column_373 Column_374 Column_375 Column_376 Column_377 Column_378 Column_379 Column_380 Column_381 Column_382 Column_383 Column_384 Column_385 Column_386 Column_387 Column_388 Column_389 Column_390 Column_391 Column_392 Column_393 Column_394 Column_395 Column_396 Column_397 Column_398 Column_399 Column_400 Column_401 Column_402 Column_403 Column_404 Column_405 Column_406 Column_407 Column_408 Column_409 Column_410 Column_411 Column_412 Column_413 Column_414 Column_415 Column_416 Column_417 Column_418 Column_419 Column_420 Column_421 Column_422 Column_423 Column_424 Column_425 Column_426 Column_427 Column_428 Column_429 Column_430 Column_431 Column_432 Column_433 Column_434 Column_435 Column_436 Column_437 Column_438 Column_439 Column_440 Column_441 Column_442 Column_443 Column_444 Column_445 Column_446 Column_447 Column_448 Column_449 Column_450 Column_451 Column_452 Column_453 Column_454 Column_455 Column_456 Column_457 Column_458 Column_459 Column_460 Column_461 Column_462 Column_463 Column_464 Column_465 Column_466 Column_467 Column_468 Column_469 Column_470 Column_471 Column_472 Column_473 Column_474 Column_475 Column_476 Column_477 Column_478 Column_479 Column_480 Column_481 Column_482 Column_483 Column_484 Column_485 Column_486 Column_487 Column_488 Column_489 Column_490 Column_491 Column_492 Column_493 Column_494 Column_495 Column_496 Column_497 Column_498 Column_499 Column_500 Column_501 Column_502 Column_503 Column_504 Column_505 Column_506 Column_507 Column_508 Column_509 Column_510 Column_511 Column_512 Column_513 Column_514 Column_515 Column_516 Column_517 Column_518 Column_519 Column_520 Column_521 Column_522 Column_523 Column_524 Column_525 Column_526 Column_527 Column_528 Column_529 Column_530 Column_531 Column_532 Column_533 Column_534 Column_535 Column_536 Column_537 Column_538 Column_539 Column_540 Column_541 Column_542 Column_543 Column_544 Column_545 Column_546 Column_547 Column_548 Column_549 Column_550 Column_551 Column_552 Column_553 Column_554 Column_555 Column_556 Column_557 Column_558 Column_559 Column_560 Column_561 Column_562 Column_563 Column_564 Column_565 Column_566 Column_567 Column_568 Column_569 Column_570 Column_571 Column_572 Column_573 Column_574 Column_575 Column_576 Column_577 Column_578 Column_579 Column_580 Column_581 Column_582 Column_583 Column_584 Column_585 Column_586 Column_587 Column_588 Column_589 Column_590 Column_591 Column_592 Column_593 Column_594 Column_595 Column_596 Column_597 Column_598 Column_599 Column_600 Column_601 Column_602 Column_603 Column_604 Column_605 Column_606 Column_607 Column_608 Column_609 Column_610 Column_611 Column_612 Column_613 Column_614 Column_615 Column_616 Column_617 Column_618 Column_619 Column_620 Column_621 Column_622 Column_623 Column_624 Column_625 Column_626 Column_627 Column_628 Column_629 Column_630 Column_631 Column_632 Column_633 Column_634 Column_635 Column_636 Column_637 Column_638 Column_639 Column_640 Column_641 Column_642 Column_643 Column_644 Column_645 Column_646 Column_647 Column_648 Column_649 Column_650 Column_651 Column_652 Column_653 Column_654 Column_655 Column_656 Column_657 Column_658 Column_659 Column_660 Column_661 Column_662 Column_663 Column_664 Column_665 Column_666 Column_667 Column_668 Column_669 Column_670 Column_671 Column_672 Column_673 Column_674 Column_675 Column_676 Column_677 Column_678 Column_679 Column_680 Column_681 Column_682 Column_683 Column_684 Column_685 Column_686 Column_687 Column_688 Column_689 Column_690 Column_691 Column_692 Column_693 Column_694 Column_695 Column_696 Column_697 Column_698 Column_699 Column_700 Column_701 Column_702 Column_703 Column_704 Column_705 Column_706 Column_707 Column_708 Column_709 Column_710 Column_711 Column_712 Column_713 Column_714 Column_715 Column_716 Column_717 Column_718 Column_719 Column_720 Column_721 Column_722 Column_723 Column_724 Column_725 Column_726 Column_727 Column_728 Column_729 Column_730 Column_731 Column_732 Column_733 Column_734 Column_735 Column_736 Column_737 Column_738 Column_739 Column_740 Column_741 Column_742 Column_743 Column_744 Column_745 Column_746 Column_747 Column_748 Column_749 Column_750 Column_751 Column_752 Column_753 Column_754 Column_755 Column_756 Column_757 Column_758 Column_759 Column_760 Column_761 Column_762 Column_763 Column_764 Column_765 Column_766 Column_767 Column_768 Column_769 Column_770 Column_771 Column_772 Column_773 Column_774 Column_775 Column_776 Column_777 Column_778 Column_779 Column_780 Column_781 Column_782 Column_783 Column_784 Column_785 Column_786 Column_787 Column_788 Column_789 Column_790 Column_791 Column_792 Column_793 Column_794 Column_795 Column_796 Column_797 Column_798 Column_799 Column_800 Column_801 Column_802 Column_803 Column_804 Column_805 Column_806 Column_807 Column_808 Column_809 Column_810 Column_811 Column_812 Column_813 Column_814 Column_815 Column_816 Column_817 Column_818 Column_819 Column_820 Column_821 Column_822 Column_823 Column_824 Column_825 Column_826 Column_827 Column_828 Column_829 Column_830 Column_831 Column_832 Column_833 Column_834 Column_835 Column_836 Column_837 Column_838 Column_839 Column_840 Column_841 Column_842 Column_843 Column_844 Column_845 Column_846 Column_847 Column_848 Column_849 Column_850 Column_851 Column_852 Column_853 Column_854 Column_855 Column_856 Column_857 Column_858 Column_859 Column_860 Column_861 Column_862 Column_863 Column_864 Column_865 Column_866 Column_867 Column_868 Column_869 Column_870 Column_871 Column_872 Column_873 Column_874 Column_875 Column_876 Column_877 Column_878 Column_879 Column_880 Column_881 Column_882 Column_883 Column_884 Column_885 Column_886 Column_887 Column_888 Column_889 Column_890 Column_891 Column_892 Column_893 Column_894 Column_895 Column_896 Column_897 Column_898 Column_899 Column_900 Column_901 Column_902 Column_903 Column_904 Column_905 Column_906 Column_907 Column_908 Column_909 Column_910 Column_911 Column_912 Column_913 Column_914 Column_915 Column_916 Column_917 Column_918 Column_919 Column_920 Column_921 Column_922 Column_923 Column_924 Column_925 Column_926 Column_927 Column_928 Column_929 Column_930 Column_931 Column_932 Column_933 Column_934 Column_935 Column_936 Column_937 Column_938 Column_939 Column_940 Column_941 Column_942 Column_943 Column_944 Column_945 Column_946 Column_947 Column_948 Column_949 Column_950 Column_951 Column_952 Column_953 Column_954 Column_955 Column_956 Column_957 Column_958 Column_959 Column_960 Column_961 Column_962 Column_963 Column_964 Column_965 Column_966 Column_967 Column_968 Column_969 Column_970 Column_971 Column_972 Column_973 Column_974 Column_975 Column_976 Column_977 Column_978 Column_979 Column_980 Column_981 Column_982 Column_983 Column_984 Column_985 Column_986 Column_987 Column_988 Column_989 Column_990 Column_991 Column_992 Column_993 Column_994 Column_995 Column_996 Column_997 Column_998 Column_999 Column_1000 Column_1001 Column_1002 Column_1003 Column_1004 Column_1005 Column_1006 Column_1007 Column_1008 Column_1009 Column_1010 Column_1011 Column_1012 Column_1013 Column_1014 Column_1015 Column_1016 Column_1017 Column_1018 Column_1019 Column_1020 Column_1021 Column_1022 Column_1023 Column_1024 Column_1025 Column_1026 Column_1027 Column_1028 Column_1029 Column_1030 Column_1031 Column_1032 Column_1033 Column_1034 Column_1035 Column_1036 Column_1037 Column_1038 Column_1039 Column_1040 Column_1041 Column_1042 Column_1043 Column_1044 Column_1045 Column_1046 Column_1047 Column_1048 Column_1049 Column_1050 Column_1051 Column_1052 Column_1053 Column_1054 Column_1055 Column_1056 Column_1057 Column_1058 Column_1059 Column_1060 Column_1061 Column_1062 Column_1063 Column_1064 Column_1065 Column_1066 Column_1067 Column_1068 Column_1069 Column_1070 Column_1071 Column_1072 Column_1073 Column_1074 Column_1075 Column_1076 Column_1077 Column_1078 Column_1079 Column_1080 Column_1081 Column_1082 Column_1083 Column_1084 Column_1085 Column_1086 Column_1087 Column_1088 Column_1089 Column_1090 Column_1091 Column_1092 Column_1093 Column_1094 Column_1095 Column_1096 Column_1097 Column_1098 Column_1099 Column_1100 Column_1101 Column_1102 Column_1103 Column_1104 Column_1105 Column_1106 Column_1107 Column_1108 Column_1109 Column_1110 Column_1111 Column_1112 Column_1113 Column_1114 Column_1115 Column_1116 Column_1117 Column_1118 Column_1119 Column_1120 Column_1121 Column_1122 Column_1123 Column_1124 Column_1125 Column_1126 Column_1127 Column_1128 Column_1129 Column_1130 Column_1131 Column_1132 Column_1133 Column_1134 Column_1135 Column_1136 Column_1137 Column_1138 Column_1139 Column_1140 Column_1141 Column_1142 Column_1143 Column_1144 Column_1145 Column_1146 Column_1147 Column_1148 Column_1149 Column_1150 Column_1151 Column_1152 Column_1153 Column_1154 Column_1155 Column_1156 Column_1157 Column_1158 Column_1159 Column_1160 Column_1161 Column_1162 Column_1163 Column_1164 Column_1165 Column_1166 Column_1167 Column_1168 Column_1169 Column_1170 Column_1171 Column_1172 Column_1173 Column_1174 Column_1175 Column_1176 Column_1177 Column_1178 Column_1179 Column_1180 Column_1181 Column_1182 Column_1183 Column_1184 Column_1185 Column_1186 Column_1187 Column_1188 Column_1189 Column_1190 Column_1191 Column_1192 Column_1193 Column_1194 Column_1195 Column_1196 Column_1197 Column_1198 Column_1199 Column_1200 Column_1201 Column_1202 Column_1203 Column_1204 Column_1205 Column_1206 Column_1207 Column_1208 Column_1209 Column_1210 Column_1211 Column_1212 Column_1213 Column_1214 Column_1215 Column_1216 Column_1217 Column_1218 Column_1219 Column_1220 Column_1221 Column_1222 Column_1223 Column_1224 Column_1225 Column_1226 Column_1227 Column_1228 Column_1229 Column_1230 Column_1231 Column_1232 Column_1233 Column_1234 Column_1235 Column_1236 Column_1237 Column_1238 Column_1239 Column_1240 Column_1241 Column_1242 Column_1243 Column_1244 Column_1245 Column_1246 Column_1247 Column_1248 Column_1249 Column_1250 Column_1251 Column_1252 Column_1253 Column_1254 Column_1255 Column_1256 Column_1257 Column_1258 Column_1259 Column_1260 Column_1261 Column_1262 Column_1263 Column_1264 Column_1265 Column_1266 Column_1267 Column_1268 Column_1269 Column_1270 Column_1271 Column_1272 Column_1273 Column_1274 Column_1275 Column_1276 Column_1277 Column_1278 Column_1279 Column_1280 Column_1281 Column_1282 Column_1283 Column_1284 Column_1285 Column_1286 Column_1287 Column_1288 Column_1289 Column_1290 Column_1291 Column_1292 Column_1293 Column_1294 Column_1295 Column_1296 Column_1297 Column_1298 Column_1299 Column_1300 Column_1301 Column_1302 Column_1303 Column_1304 Column_1305 Column_1306 Column_1307 Column_1308 Column_1309 Column_1310 Column_1311 Column_1312 Column_1313 Column_1314 Column_1315 Column_1316 Column_1317 Column_1318 Column_1319 Column_1320 Column_1321 Column_1322 Column_1323 Column_1324 Column_1325 Column_1326 Column_1327 Column_1328 Column_1329 Column_1330 Column_1331 Column_1332 Column_1333 Column_1334 Column_1335 Column_1336 Column_1337 Column_1338 Column_1339 Column_1340 Column_1341 Column_1342 Column_1343 Column_1344 Column_1345 Column_1346 Column_1347 Column_1348 Column_1349 Column_1350 Column_1351 Column_1352 Column_1353 Column_1354 Column_1355 Column_1356 Column_1357 Column_1358 Column_1359 Column_1360 Column_1361 Column_1362 Column_1363 Column_1364 Column_1365 Column_1366 Column_1367 Column_1368 Column_1369 Column_1370 Column_1371 Column_1372 Column_1373 Column_1374 Column_1375 Column_1376 Column_1377 Column_1378 Column_1379 Column_1380 Column_1381 Column_1382 Column_1383 Column_1384 Column_1385 Column_1386 Column_1387 Column_1388 Column_1389 Column_1390 Column_1391 Column_1392 Column_1393 Column_1394 Column_1395 Column_1396 Column_1397 Column_1398 Column_1399 Column_1400 Column_1401 Column_1402 Column_1403 Column_1404 Column_1405 Column_1406 Column_1407 Column_1408 Column_1409 Column_1410 Column_1411 Column_1412 Column_1413 Column_1414 Column_1415 Column_1416 Column_1417 Column_1418 Column_1419 Column_1420 Column_1421 Column_1422 Column_1423 Column_1424 Column_1425 Column_1426 Column_1427 Column_1428 Column_1429 Column_1430 Column_1431 Column_1432 Column_1433 Column_1434 Column_1435 Column_1436 Column_1437 Column_1438 Column_1439 Column_1440 Column_1441 Column_1442 Column_1443 Column_1444 Column_1445 Column_1446 Column_1447 Column_1448 Column_1449 Column_1450 Column_1451 Column_1452 Column_1453 Column_1454 Column_1455 Column_1456 Column_1457 Column_1458 Column_1459 Column_1460 Column_1461 Column_1462 Column_1463 Column_1464 Column_1465 Column_1466 Column_1467 Column_1468 Column_1469 Column_1470 Column_1471 Column_1472 Column_1473 Column_1474 Column_1475 Column_1476 Column_1477 Column_1478 Column_1479 Column_1480 Column_1481 Column_1482 Column_1483 Column_1484 Column_1485 Column_1486 Column_1487 Column_1488 Column_1489 Column_1490 Column_1491 Column_1492 Column_1493 Column_1494 Column_1495 Column_1496 Column_1497 Column_1498 Column_1499 Column_1500 Column_1501 Column_1502 Column_1503 Column_1504 Column_1505 Column_1506 Column_1507 Column_1508 Column_1509 Column_1510 Column_1511 Column_1512 Column_1513 Column_1514 Column_1515 Column_1516 Column_1517 Column_1518 Column_1519 Column_1520 Column_1521 Column_1522 Column_1523 Column_1524 Column_1525 Column_1526 Column_1527 Column_1528 Column_1529 Column_1530 Column_1531 Column_1532 Column_1533 Column_1534 Column_1535 Column_1536 Column_1537 Column_1538 Column_1539 Column_1540 Column_1541 Column_1542 Column_1543 Column_1544 Column_1545 Column_1546 Column_1547 Column_1548 Column_1549 Column_1550 Column_1551 Column_1552 Column_1553 Column_1554 Column_1555 Column_1556 Column_1557 Column_1558 Column_1559 Column_1560 Column_1561 Column_1562 Column_1563 Column_1564 Column_1565 Column_1566 Column_1567 Column_1568 Column_1569 Column_1570 Column_1571 Column_1572 Column_1573 Column_1574 Column_1575 Column_1576 Column_1577 Column_1578 Column_1579 Column_1580 Column_1581 Column_1582 Column_1583 Column_1584 Column_1585 Column_1586 Column_1587 Column_1588 Column_1589 Column_1590 Column_1591 Column_1592 Column_1593 Column_1594 Column_1595 Column_1596 Column_1597 Column_1598 Column_1599 Column_1600 Column_1601 Column_1602 Column_1603 Column_1604 Column_1605 Column_1606 Column_1607 Column_1608 Column_1609 Column_1610 Column_1611 Column_1612 Column_1613 Column_1614 Column_1615 Column_1616 Column_1617 Column_1618 Column_1619 Column_1620 Column_1621 Column_1622 Column_1623 Column_1624 Column_1625 Column_1626 Column_1627 Column_1628 Column_1629 Column_1630 Column_1631 Column_1632 Column_1633 Column_1634 Column_1635 Column_1636 Column_1637 Column_1638 Column_1639 Column_1640 Column_1641 Column_1642 Column_1643 Column_1644 Column_1645 Column_1646 Column_1647 Column_1648 Column_1649 Column_1650 Column_1651 Column_1652 Column_1653 Column_1654 Column_1655 Column_1656 Column_1657 Column_1658 Column_1659 Column_1660 Column_1661 Column_1662 Column_1663 Column_1664 Column_1665 Column_1666 Column_1667 Column_1668 Column_1669 Column_1670 Column_1671 Column_1672 Column_1673 Column_1674 Column_1675 Column_1676 Column_1677 Column_1678 Column_1679 Column_1680 Column_1681 Column_1682 Column_1683 Column_1684 Column_1685 Column_1686 Column_1687 Column_1688 Column_1689 Column_1690 Column_1691 Column_1692 Column_1693 Column_1694 Column_1695 Column_1696 Column_1697 Column_1698 Column_1699 Column_1700 Column_1701 Column_1702 Column_1703 Column_1704 Column_1705 Column_1706 Column_1707 Column_1708 Column_1709 Column_1710 Column_1711 Column_1712 Column_1713 Column_1714 Column_1715 Column_1716 Column_1717 Column_1718 Column_1719 Column_1720 Column_1721 Column_1722 Column_1723 Column_1724 Column_1725 Column_1726 Column_1727 Column_1728 Column_1729 Column_1730 Column_1731 Column_1732 Column_1733 Column_1734 Column_1735 Column_1736 Column_1737 Column_1738 Column_1739 Column_1740 Column_1741 Column_1742 Column_1743 Column_1744 Column_1745 Column_1746 Column_1747 Column_1748 Column_1749 Column_1750 Column_1751 Column_1752 Column_1753 Column_1754 Column_1755 Column_1756 Column_1757 Column_1758 Column_1759 Column_1760 Column_1761 Column_1762 Column_1763 Column_1764 Column_1765 Column_1766 Column_1767 Column_1768 Column_1769 Column_1770 Column_1771 Column_1772 Column_1773 Column_1774 Column_1775 Column_1776 Column_1777 Column_1778 Column_1779 Column_1780 Column_1781 Column_1782 Column_1783 Column_1784 Column_1785 Column_1786 Column_1787 Column_1788 Column_1789 Column_1790 Column_1791 Column_1792 Column_1793 Column_1794 Column_1795 Column_1796 Column_1797 Column_1798 Column_1799 Column_1800 Column_1801 Column_1802 Column_1803 Column_1804 Column_1805 Column_1806 Column_1807 Column_1808 Column_1809 Column_1810 Column_1811 Column_1812 Column_1813 Column_1814 Column_1815 Column_1816 Column_1817 Column_1818 Column_1819 Column_1820 Column_1821 Column_1822 Column_1823 Column_1824 Column_1825 Column_1826 Column_1827 Column_1828 Column_1829 Column_1830 Column_1831 Column_1832 Column_1833 Column_1834 Column_1835 Column_1836 Column_1837 Column_1838 Column_1839 Column_1840 Column_1841 Column_1842 Column_1843 Column_1844 Column_1845 Column_1846 Column_1847 Column_1848 Column_1849 Column_1850 Column_1851 Column_1852 Column_1853 Column_1854 Column_1855 Column_1856 Column_1857 Column_1858 Column_1859 Column_1860 Column_1861 Column_1862 Column_1863 Column_1864 Column_1865 Column_1866 Column_1867 Column_1868 Column_1869 Column_1870 Column_1871 Column_1872 Column_1873 Column_1874 Column_1875 Column_1876 Column_1877 Column_1878 Column_1879 Column_1880 Column_1881 Column_1882 Column_1883 Column_1884 Column_1885 Column_1886 Column_1887 Column_1888 Column_1889 Column_1890 Column_1891 Column_1892 Column_1893 Column_1894 Column_1895 Column_1896 Column_1897 Column_1898 Column_1899 Column_1900 Column_1901 Column_1902 Column_1903 Column_1904 Column_1905 Column_1906 Column_1907 Column_1908 Column_1909 Column_1910 Column_1911 Column_1912 Column_1913 Column_1914 Column_1915 Column_1916 Column_1917 Column_1918 Column_1919 Column_1920 Column_1921 Column_1922 Column_1923 Column_1924 Column_1925 Column_1926 Column_1927 Column_1928 Column_1929 Column_1930 Column_1931 Column_1932 Column_1933 Column_1934 Column_1935 Column_1936 Column_1937 Column_1938 Column_1939 Column_1940 Column_1941 Column_1942 Column_1943 Column_1944 Column_1945 Column_1946 Column_1947 Column_1948 Column_1949 Column_1950 Column_1951 Column_1952 Column_1953 Column_1954 Column_1955 Column_1956 Column_1957 Column_1958 Column_1959 Column_1960 Column_1961 Column_1962 Column_1963 Column_1964 Column_1965 Column_1966 Column_1967 Column_1968 Column_1969 Column_1970 Column_1971 Column_1972 Column_1973 Column_1974 Column_1975 Column_1976 Column_1977 Column_1978 Column_1979 Column_1980 Column_1981 Column_1982 Column_1983 Column_1984 Column_1985 Column_1986 Column_1987 Column_1988 Column_1989 Column_1990 Column_1991 Column_1992 Column_1993 Column_1994 Column_1995 Column_1996 Column_1997 Column_1998 Column_1999 Column_2000 Column_2001 Column_2002 Column_2003 Column_2004 Column_2005 Column_2006 Column_2007 Column_2008 Column_2009 Column_2010 Column_2011 Column_2012 Column_2013 Column_2014 Column_2015 Column_2016 Column_2017 Column_2018 Column_2019 Column_2020 Column_2021 Column_2022 Column_2023 Column_2024 Column_2025 Column_2026 Column_2027 Column_2028 Column_2029 Column_2030 Column_2031 Column_2032 Column_2033 Column_2034 Column_2035 Column_2036 Column_2037 Column_2038 Column_2039 Column_2040 Column_2041 Column_2042 Column_2043 Column_2044 Column_2045 Column_2046 Column_2047 Column_2048 Column_2049 Column_2050 Column_2051 Column_2052 Column_2053 Column_2054 Column_2055 Column_2056 Column_2057 Column_2058 Column_2059 Column_2060 Column_2061 Column_2062 Column_2063 Column_2064 Column_2065 Column_2066 Column_2067 Column_2068 Column_2069 Column_2070 Column_2071 Column_2072 Column_2073 Column_2074 Column_2075 Column_2076 Column_2077 Column_2078 Column_2079 Column_2080 Column_2081 Column_2082 Column_2083 Column_2084 Column_2085 Column_2086 Column_2087 Column_2088 Column_2089 Column_2090 Column_2091 Column_2092 Column_2093 Column_2094 Column_2095 Column_2096 Column_2097 Column_2098 Column_2099 Column_2100 Column_2101 Column_2102 Column_2103 Column_2104 Column_2105 Column_2106 Column_2107 Column_2108 Column_2109 Column_2110 Column_2111 Column_2112 Column_2113 Column_2114 Column_2115 Column_2116 Column_2117 Column_2118 Column_2119 Column_2120 Column_2121 Column_2122 Column_2123 Column_2124 Column_2125 Column_2126 Column_2127 Column_2128 Column_2129 Column_2130 Column_2131 Column_2132 Column_2133 Column_2134 Column_2135 Column_2136 Column_2137 Column_2138 Column_2139 Column_2140 Column_2141 Column_2142 Column_2143 Column_2144 Column_2145 Column_2146 Column_2147 Column_2148 Column_2149 Column_2150 Column_2151 Column_2152 Column_2153 Column_2154 Column_2155 Column_2156 Column_2157 Column_2158 Column_2159 Column_2160 Column_2161 Column_2162 Column_2163 Column_2164 Column_2165 Column_2166 Column_2167 Column_2168 Column_2169 Column_2170 Column_2171 Column_2172 Column_2173 Column_2174 Column_2175 Column_2176 Column_2177 Column_2178 Column_2179 Column_2180 Column_2181 Column_2182 Column_2183 Column_2184 Column_2185 Column_2186 Column_2187 Column_2188 Column_2189 Column_2190 Column_2191 Column_2192 Column_2193 Column_2194 Column_2195 Column_2196 Column_2197 Column_2198 Column_2199 Column_2200 Column_2201 Column_2202 Column_2203 Column_2204 Column_2205 Column_2206 Column_2207 Column_2208 Column_2209 Column_2210 Column_2211 Column_2212 Column_2213 Column_2214 Column_2215 Column_2216 Column_2217 Column_2218 Column_2219 Column_2220 Column_2221 Column_2222 Column_2223 Column_2224 Column_2225 Column_2226 Column_2227 Column_2228 Column_2229 Column_2230 Column_2231 Column_2232 Column_2233 Column_2234 Column_2235 Column_2236 Column_2237 Column_2238 Column_2239 Column_2240 Column_2241 Column_2242 Column_2243 Column_2244 Column_2245 Column_2246 Column_2247 Column_2248 Column_2249 Column_2250 Column_2251 Column_2252 Column_2253 Column_2254 Column_2255 Column_2256 Column_2257 Column_2258 Column_2259 Column_2260 Column_2261 Column_2262 Column_2263 Column_2264 Column_2265 Column_2266 Column_2267 Column_2268 Column_2269 Column_2270 Column_2271 Column_2272 Column_2273 Column_2274 Column_2275 Column_2276 Column_2277 Column_2278 Column_2279 Column_2280 Column_2281 Column_2282 Column_2283 Column_2284 Column_2285 Column_2286 Column_2287 Column_2288 Column_2289 Column_2290 Column_2291 Column_2292 Column_2293 Column_2294 Column_2295 Column_2296 Column_2297 Column_2298 Column_2299 Column_2300 Column_2301 Column_2302 Column_2303 Column_2304 Column_2305 Column_2306 Column_2307 Column_2308 Column_2309 Column_2310 Column_2311 Column_2312 Column_2313 Column_2314 Column_2315 Column_2316 Column_2317 Column_2318 Column_2319 Column_2320 Column_2321 Column_2322 Column_2323 Column_2324 Column_2325 Column_2326 Column_2327 Column_2328 Column_2329 Column_2330 Column_2331 Column_2332 Column_2333 Column_2334 Column_2335 Column_2336 Column_2337 Column_2338 Column_2339 Column_2340 Column_2341 Column_2342 Column_2343 Column_2344 Column_2345 Column_2346 Column_2347 Column_2348 Column_2349 Column_2350 Column_2351 Column_2352 Column_2353 Column_2354 Column_2355 Column_2356 Column_2357 Column_2358 Column_2359 Column_2360 Column_2361 Column_2362 Column_2363 Column_2364 Column_2365 Column_2366 Column_2367 Column_2368 Column_2369 Column_2370 Column_2371 Column_2372 Column_2373 Column_2374 Column_2375 Column_2376 Column_2377 Column_2378 Column_2379 Column_2380 Column_2381 Column_2382 Column_2383 Column_2384 Column_2385 Column_2386 Column_2387 Column_2388 Column_2389 Column_2390 Column_2391 Column_2392 Column_2393 Column_2394 Column_2395 Column_2396 Column_2397 Column_2398 Column_2399 Column_2400 Column_2401 Column_2402 Column_2403 Column_2404 Column_2405 Column_2406 Column_2407 Column_2408 Column_2409 Column_2410 Column_2411 Column_2412 Column_2413 Column_2414 Column_2415 Column_2416 Column_2417 Column_2418 Column_2419 Column_2420 Column_2421 Column_2422 Column_2423 Column_2424 Column_2425 Column_2426 Column_2427 Column_2428 Column_2429 Column_2430 Column_2431 Column_2432 Column_2433 Column_2434 Column_2435 Column_2436 Column_2437 Column_2438 Column_2439 Column_2440 Column_2441 Column_2442 Column_2443 Column_2444 Column_2445 Column_2446 Column_2447 Column_2448 Column_2449 Column_2450 Column_2451 Column_2452 Column_2453 Column_2454 Column_2455 Column_2456 Column_2457 Column_2458 Column_2459 Column_2460 Column_2461 Column_2462 Column_2463 Column_2464 Column_2465 Column_2466 Column_2467 Column_2468 Column_2469 Column_2470 Column_2471 Column_2472 Column_2473 Column_2474 Column_2475 Column_2476 Column_2477 Column_2478 Column_2479 Column_2480 Column_2481 Column_2482 Column_2483 Column_2484 Column_2485 Column_2486 Column_2487 Column_2488 Column_2489 Column_2490 Column_2491 Column_2492 Column_2493 Column_2494 Column_2495 Column_2496 Column_2497 Column_2498 Column_2499 Column_2500 Column_2501 Column_2502 Column_2503 Column_2504 Column_2505 Column_2506 Column_2507 Column_2508 Column_2509 Column_2510 Column_2511 Column_2512 Column_2513 Column_2514 Column_2515 Column_2516 Column_2517 Column_2518 Column_2519 Column_2520 Column_2521 Column_2522 Column_2523 Column_2524 Column_2525 Column_2526 Column_2527 Column_2528 Column_2529 Column_2530 Column_2531 Column_2532 Column_2533 Column_2534 Column_2535 Column_2536 Column_2537 Column_2538 Column_2539 Column_2540 Column_2541 Column_2542 Column_2543 Column_2544 Column_2545 Column_2546 Column_2547 Column_2548 Column_2549 Column_2550 Column_2551 Column_2552 Column_2553 Column_2554 Column_2555 Column_2556 Column_2557 Column_2558 Column_2559 Column_2560 Column_2561 Column_2562 Column_2563 Column_2564 Column_2565 Column_2566 Column_2567 Column_2568 Column_2569 Column_2570 Column_2571 Column_2572 Column_2573 Column_2574 Column_2575 Column_2576 Column_2577 Column_2578 Column_2579 Column_2580 Column_2581 Column_2582 Column_2583 Column_2584 Column_2585 Column_2586 Column_2587 Column_2588 Column_2589 Column_2590 Column_2591 Column_2592 Column_2593 Column_2594 Column_2595 Column_2596 Column_2597 Column_2598 Column_2599 Column_2600 Column_2601 Column_2602 Column_2603 Column_2604 Column_2605 Column_2606 Column_2607 Column_2608 Column_2609 Column_2610 Column_2611 Column_2612 Column_2613 Column_2614 Column_2615 Column_2616 Column_2617 Column_2618 Column_2619 Column_2620 Column_2621 Column_2622 Column_2623 Column_2624 Column_2625 Column_2626 Column_2627 Column_2628 Column_2629 Column_2630 Column_2631 Column_2632 Column_2633 Column_2634 Column_2635 Column_2636 Column_2637 Column_2638 Column_2639 Column_2640 Column_2641 Column_2642 Column_2643 Column_2644 Column_2645 Column_2646 Column_2647 Column_2648 Column_2649 Column_2650 Column_2651 Column_2652 Column_2653 Column_2654 Column_2655 Column_2656 Column_2657 Column_2658 Column_2659 Column_2660 Column_2661 Column_2662 Column_2663 Column_2664 Column_2665 Column_2666 Column_2667 Column_2668 Column_2669 Column_2670 Column_2671 Column_2672 Column_2673 Column_2674 Column_2675 Column_2676 Column_2677 Column_2678 Column_2679 Column_2680 Column_2681 Column_2682 Column_2683 Column_2684 Column_2685 Column_2686 Column_2687 Column_2688 Column_2689 Column_2690 Column_2691 Column_2692 Column_2693 Column_2694 Column_2695 Column_2696 Column_2697 Column_2698 Column_2699 Column_2700 Column_2701 Column_2702 Column_2703 Column_2704 Column_2705 Column_2706 Column_2707 Column_2708 Column_2709 Column_2710 Column_2711 Column_2712 Column_2713 Column_2714 Column_2715 Column_2716 Column_2717 Column_2718 Column_2719 Column_2720 Column_2721 Column_2722 Column_2723 Column_2724 Column_2725 Column_2726 Column_2727 Column_2728 Column_2729 Column_2730 Column_2731 Column_2732 Column_2733 Column_2734 Column_2735 Column_2736 Column_2737 Column_2738 Column_2739 Column_2740 Column_2741 Column_2742 Column_2743 Column_2744 Column_2745 Column_2746 Column_2747 Column_2748 Column_2749 Column_2750 Column_2751 Column_2752 Column_2753 Column_2754 Column_2755 Column_2756 Column_2757 Column_2758 Column_2759 Column_2760 Column_2761 Column_2762 Column_2763 Column_2764 Column_2765 Column_2766 Column_2767 Column_2768 Column_2769 Column_2770 Column_2771 Column_2772 Column_2773 Column_2774 Column_2775 Column_2776 Column_2777 Column_2778 Column_2779 Column_2780 Column_2781 Column_2782 Column_2783 Column_2784 Column_2785 Column_2786 Column_2787 Column_2788 Column_2789 Column_2790 Column_2791 Column_2792 Column_2793 Column_2794 Column_2795 Column_2796 Column_2797 Column_2798 Column_2799 Column_2800 Column_2801 Column_2802 Column_2803 Column_2804 Column_2805 Column_2806 Column_2807 Column_2808 Column_2809 Column_2810 Column_2811 Column_2812 Column_2813 Column_2814 Column_2815 Column_2816 Column_2817 Column_2818 Column_2819 Column_2820 Column_2821 Column_2822 Column_2823 Column_2824 Column_2825 Column_2826 Column_2827 Column_2828 Column_2829 Column_2830 Column_2831 Column_2832 Column_2833 Column_2834 Column_2835 Column_2836 Column_2837 Column_2838 Column_2839 Column_2840 Column_2841 Column_2842 Column_2843 Column_2844 Column_2845 Column_2846 Column_2847 Column_2848 Column_2849 Column_2850 Column_2851 Column_2852 Column_2853 Column_2854 Column_2855 Column_2856 Column_2857 Column_2858 Column_2859 Column_2860 Column_2861 Column_2862 Column_2863 Column_2864 Column_2865 Column_2866 Column_2867 Column_2868 Column_2869 Column_2870 Column_2871 Column_2872 Column_2873 Column_2874 Column_2875 Column_2876 Column_2877 Column_2878 Column_2879 Column_2880 Column_2881 Column_2882 Column_2883 Column_2884 Column_2885 Column_2886 Column_2887 Column_2888 Column_2889 Column_2890 Column_2891 Column_2892 Column_2893 Column_2894 Column_2895 Column_2896 Column_2897 Column_2898 Column_2899 Column_2900 Column_2901 Column_2902 Column_2903 Column_2904 Column_2905 Column_2906 Column_2907 Column_2908 Column_2909 Column_2910 Column_2911 Column_2912 Column_2913 Column_2914 Column_2915 Column_2916 Column_2917 Column_2918 Column_2919 Column_2920 Column_2921 Column_2922 Column_2923 Column_2924 Column_2925 Column_2926 Column_2927 Column_2928 Column_2929 Column_2930 Column_2931 Column_2932 Column_2933 Column_2934 Column_2935 Column_2936 Column_2937 Column_2938 Column_2939 Column_2940 Column_2941 Column_2942 Column_2943 Column_2944 Column_2945 Column_2946 Column_2947 Column_2948 Column_2949 Column_2950 Column_2951 Column_2952 Column_2953 Column_2954 Column_2955 Column_2956 Column_2957 Column_2958 Column_2959 Column_2960 Column_2961 Column_2962 Column_2963 Column_2964 Column_2965 Column_2966 Column_2967 Column_2968 Column_2969 Column_2970 Column_2971 Column_2972 Column_2973 Column_2974 Column_2975 Column_2976 Column_2977 Column_2978 Column_2979 Column_2980 Column_2981 Column_2982 Column_2983 Column_2984 Column_2985 Column_2986 Column_2987 Column_2988 Column_2989 Column_2990 Column_2991 Column_2992 Column_2993 Column_2994 Column_2995 Column_2996 Column_2997 Column_2998 Column_2999 Column_3000 Column_3001 Column_3002 Column_3003 Column_3004 Column_3005 Column_3006 Column_3007 Column_3008 Column_3009 Column_3010 Column_3011 Column_3012 Column_3013 Column_3014 Column_3015 Column_3016 Column_3017 Column_3018 Column_3019 Column_3020 Column_3021 Column_3022 Column_3023 Column_3024 Column_3025 Column_3026 Column_3027 Column_3028 Column_3029 Column_3030 Column_3031 Column_3032 Column_3033 Column_3034 Column_3035 Column_3036 Column_3037 Column_3038 Column_3039 Column_3040 Column_3041 Column_3042 Column_3043 Column_3044 Column_3045 Column_3046 Column_3047 Column_3048 Column_3049 Column_3050 Column_3051 Column_3052 Column_3053 Column_3054 Column_3055 Column_3056 Column_3057 Column_3058 Column_3059 Column_3060 Column_3061 Column_3062 Column_3063 Column_3064 Column_3065 Column_3066 Column_3067 Column_3068 Column_3069 Column_3070 Column_3071 Column_3072 Column_3073 Column_3074 Column_3075 Column_3076 Column_3077 Column_3078 Column_3079 Column_3080 Column_3081 Column_3082 Column_3083 Column_3084 Column_3085 Column_3086 Column_3087 Column_3088 Column_3089 Column_3090 Column_3091 Column_3092 Column_3093 Column_3094 Column_3095 Column_3096 Column_3097 Column_3098 Column_3099 Column_3100 Column_3101 Column_3102 Column_3103 Column_3104 Column_3105 Column_3106 Column_3107 Column_3108 Column_3109 Column_3110 Column_3111 Column_3112 Column_3113 Column_3114 Column_3115 Column_3116 Column_3117 Column_3118 Column_3119 Column_3120 Column_3121 Column_3122 Column_3123 Column_3124 Column_3125 Column_3126 Column_3127 Column_3128 Column_3129 Column_3130 Column_3131 Column_3132 Column_3133 Column_3134 Column_3135 Column_3136 Column_3137 Column_3138 Column_3139 Column_3140 Column_3141 Column_3142 Column_3143 Column_3144 Column_3145 Column_3146 Column_3147 Column_3148 Column_3149 Column_3150 Column_3151 Column_3152 Column_3153 Column_3154 Column_3155 Column_3156 Column_3157 Column_3158 Column_3159 Column_3160 Column_3161 Column_3162 Column_3163 Column_3164 Column_3165 Column_3166 Column_3167 Column_3168 Column_3169 Column_3170 Column_3171 Column_3172 Column_3173 Column_3174 Column_3175 Column_3176 Column_3177 Column_3178 Column_3179 Column_3180 Column_3181 Column_3182 Column_3183 Column_3184 Column_3185 Column_3186 Column_3187 Column_3188 Column_3189 Column_3190 Column_3191 Column_3192 Column_3193 Column_3194 Column_3195 Column_3196 Column_3197 Column_3198 Column_3199 Column_3200 Column_3201 Column_3202 Column_3203 Column_3204 Column_3205 Column_3206 Column_3207 Column_3208 Column_3209 Column_3210 Column_3211 Column_3212 Column_3213 Column_3214 Column_3215 Column_3216 Column_3217 Column_3218 Column_3219 Column_3220 Column_3221 Column_3222 Column_3223 Column_3224 Column_3225 Column_3226 Column_3227 Column_3228 Column_3229 Column_3230 Column_3231 Column_3232 Column_3233 Column_3234 Column_3235 Column_3236 Column_3237 Column_3238 Column_3239 Column_3240 Column_3241 Column_3242 Column_3243 Column_3244 Column_3245 Column_3246 Column_3247 Column_3248 Column_3249 Column_3250 Column_3251 Column_3252 Column_3253 Column_3254 Column_3255 Column_3256 Column_3257 Column_3258 Column_3259 Column_3260 Column_3261 Column_3262 Column_3263 Column_3264 Column_3265 Column_3266 Column_3267 Column_3268 Column_3269 Column_3270 Column_3271 Column_3272 Column_3273 Column_3274 Column_3275 Column_3276 Column_3277 Column_3278 Column_3279 Column_3280 Column_3281 Column_3282 Column_3283 Column_3284 Column_3285 Column_3286 Column_3287 Column_3288 Column_3289 Column_3290 Column_3291 Column_3292 Column_3293 Column_3294 Column_3295 Column_3296 Column_3297 Column_3298 Column_3299 Column_3300 Column_3301 Column_3302 Column_3303 Column_3304 Column_3305 Column_3306 Column_3307 Column_3308 Column_3309 Column_3310 Column_3311 Column_3312 Column_3313 Column_3314 Column_3315 Column_3316 Column_3317 Column_3318 Column_3319 Column_3320 Column_3321 Column_3322 Column_3323 Column_3324 Column_3325 Column_3326 Column_3327 Column_3328 Column_3329 Column_3330 Column_3331 Column_3332 Column_3333 Column_3334 Column_3335 Column_3336 Column_3337 Column_3338 Column_3339 Column_3340 Column_3341 Column_3342 Column_3343 Column_3344 Column_3345 Column_3346 Column_3347 Column_3348 Column_3349 Column_3350 Column_3351 Column_3352 Column_3353 Column_3354 Column_3355 Column_3356 Column_3357 Column_3358 Column_3359 Column_3360 Column_3361 Column_3362 Column_3363 Column_3364 Column_3365 Column_3366 Column_3367 Column_3368 Column_3369 Column_3370 Column_3371 Column_3372 Column_3373 Column_3374 Column_3375 Column_3376 Column_3377 Column_3378 Column_3379 Column_3380 Column_3381 Column_3382 Column_3383 Column_3384 Column_3385 Column_3386 Column_3387 Column_3388 Column_3389 Column_3390 Column_3391 Column_3392 Column_3393 Column_3394 Column_3395 Column_3396 Column_3397 Column_3398 Column_3399 Column_3400 Column_3401 Column_3402 Column_3403 Column_3404 Column_3405 Column_3406 Column_3407 Column_3408 Column_3409 Column_3410 Column_3411 Column_3412 Column_3413 Column_3414 Column_3415 Column_3416 Column_3417 Column_3418 Column_3419 Column_3420 Column_3421 Column_3422 Column_3423 Column_3424 Column_3425 Column_3426 Column_3427 Column_3428 Column_3429 Column_3430 Column_3431 Column_3432 Column_3433 Column_3434 Column_3435 Column_3436 Column_3437 Column_3438 Column_3439 Column_3440 Column_3441 Column_3442 Column_3443 Column_3444 Column_3445 Column_3446 Column_3447 Column_3448 Column_3449 Column_3450 Column_3451 Column_3452 Column_3453 Column_3454 Column_3455 Column_3456 Column_3457 Column_3458 Column_3459 Column_3460 Column_3461 Column_3462 Column_3463 Column_3464 Column_3465 Column_3466 Column_3467 Column_3468 Column_3469 Column_3470 Column_3471 Column_3472 Column_3473 Column_3474 Column_3475 Column_3476 Column_3477 Column_3478 Column_3479 Column_3480 Column_3481 Column_3482 Column_3483 Column_3484 Column_3485 Column_3486 Column_3487 Column_3488 Column_3489 Column_3490 Column_3491 Column_3492 Column_3493 Column_3494 Column_3495 Column_3496 Column_3497 Column_3498 Column_3499 Column_3500 Column_3501 Column_3502 Column_3503 Column_3504 Column_3505 Column_3506 Column_3507 Column_3508 Column_3509 Column_3510 Column_3511 Column_3512 Column_3513 Column_3514 Column_3515 Column_3516 Column_3517 Column_3518 Column_3519 Column_3520 Column_3521 Column_3522 Column_3523 Column_3524 Column_3525 Column_3526 Column_3527 Column_3528 Column_3529 Column_3530 Column_3531 Column_3532 Column_3533 Column_3534 Column_3535 Column_3536 Column_3537 Column_3538 Column_3539 Column_3540 Column_3541 Column_3542 Column_3543 Column_3544 Column_3545 Column_3546 Column_3547 Column_3548 Column_3549 Column_3550 Column_3551 Column_3552 Column_3553 Column_3554 Column_3555 Column_3556 Column_3557 Column_3558 Column_3559 Column_3560 Column_3561 Column_3562 Column_3563 Column_3564 Column_3565 Column_3566 Column_3567 Column_3568 Column_3569 Column_3570 Column_3571 Column_3572 Column_3573 Column_3574 Column_3575 Column_3576 Column_3577 Column_3578 Column_3579 Column_3580 Column_3581 Column_3582 Column_3583 Column_3584 Column_3585 Column_3586 Column_3587 Column_3588 Column_3589 Column_3590 Column_3591 Column_3592 Column_3593 Column_3594 Column_3595 Column_3596 Column_3597 Column_3598 Column_3599 Column_3600 Column_3601 Column_3602 Column_3603 Column_3604 Column_3605 Column_3606 Column_3607 Column_3608 Column_3609 Column_3610 Column_3611 Column_3612 Column_3613 Column_3614 Column_3615 Column_3616 Column_3617 Column_3618 Column_3619 Column_3620 Column_3621 Column_3622 Column_3623 Column_3624 Column_3625 Column_3626 Column_3627 Column_3628 Column_3629 Column_3630 Column_3631 Column_3632 Column_3633 Column_3634 Column_3635 Column_3636 Column_3637 Column_3638 Column_3639 Column_3640 Column_3641 Column_3642 Column_3643 Column_3644 Column_3645 Column_3646 Column_3647 Column_3648 Column_3649 Column_3650 Column_3651 Column_3652 Column_3653 Column_3654 Column_3655 Column_3656 Column_3657 Column_3658 Column_3659 Column_3660 Column_3661 Column_3662 Column_3663 Column_3664 Column_3665 Column_3666 Column_3667 Column_3668 Column_3669 Column_3670 Column_3671 Column_3672 Column_3673 Column_3674 Column_3675 Column_3676 Column_3677 Column_3678 Column_3679 Column_3680 Column_3681 Column_3682 Column_3683 Column_3684 Column_3685 Column_3686 Column_3687 Column_3688 Column_3689 Column_3690 Column_3691 Column_3692 Column_3693 Column_3694 Column_3695 Column_3696 Column_3697 Column_3698 Column_3699 Column_3700 Column_3701 Column_3702 Column_3703 Column_3704 Column_3705 Column_3706 Column_3707 Column_3708 Column_3709 Column_3710 Column_3711 Column_3712 Column_3713 Column_3714 Column_3715 Column_3716 Column_3717 Column_3718 Column_3719 Column_3720 Column_3721 Column_3722 Column_3723 Column_3724 Column_3725 Column_3726 Column_3727 Column_3728 Column_3729 Column_3730 Column_3731 Column_3732 Column_3733 Column_3734 Column_3735 Column_3736 Column_3737 Column_3738 Column_3739 Column_3740 Column_3741 Column_3742 Column_3743 Column_3744 Column_3745 Column_3746 Column_3747 Column_3748 Column_3749 Column_3750 Column_3751 Column_3752 Column_3753 Column_3754 Column_3755 Column_3756 Column_3757 Column_3758 Column_3759 Column_3760 Column_3761 Column_3762 Column_3763 Column_3764 Column_3765 Column_3766 Column_3767 Column_3768 Column_3769 Column_3770 Column_3771 Column_3772 Column_3773 Column_3774 Column_3775 Column_3776 Column_3777 Column_3778 Column_3779 Column_3780 Column_3781 Column_3782 Column_3783 Column_3784 Column_3785 Column_3786 Column_3787 Column_3788 Column_3789 Column_3790 Column_3791 Column_3792 Column_3793 Column_3794 Column_3795 Column_3796 Column_3797 Column_3798 Column_3799 Column_3800 Column_3801 Column_3802 Column_3803 Column_3804 Column_3805 Column_3806 Column_3807 Column_3808 Column_3809 Column_3810 Column_3811 Column_3812 Column_3813 Column_3814 Column_3815 Column_3816 Column_3817 Column_3818 Column_3819 Column_3820 Column_3821 Column_3822 Column_3823 Column_3824 Column_3825 Column_3826 Column_3827 Column_3828 Column_3829 Column_3830 Column_3831 Column_3832 Column_3833 Column_3834 Column_3835 Column_3836 Column_3837 Column_3838 Column_3839 Column_3840 Column_3841 Column_3842 Column_3843 Column_3844 Column_3845 Column_3846 Column_3847 Column_3848 Column_3849 Column_3850 Column_3851 Column_3852 Column_3853 Column_3854 Column_3855 Column_3856 Column_3857 Column_3858 Column_3859 Column_3860 Column_3861 Column_3862 Column_3863 Column_3864 Column_3865 Column_3866 Column_3867 Column_3868 Column_3869 Column_3870 Column_3871 Column_3872 Column_3873 Column_3874 Column_3875 Column_3876 Column_3877 Column_3878 Column_3879 Column_3880 Column_3881 Column_3882 Column_3883 Column_3884 Column_3885 Column_3886 Column_3887 Column_3888 Column_3889 Column_3890 Column_3891 Column_3892 Column_3893 Column_3894 Column_3895 Column_3896 Column_3897 Column_3898 Column_3899 Column_3900 Column_3901 Column_3902 Column_3903 Column_3904 Column_3905 Column_3906 Column_3907 Column_3908 Column_3909 Column_3910 Column_3911 Column_3912 Column_3913 Column_3914 Column_3915 Column_3916 Column_3917 Column_3918 Column_3919 Column_3920 Column_3921 Column_3922 Column_3923 Column_3924 Column_3925 Column_3926 Column_3927 Column_3928 Column_3929 Column_3930 Column_3931 Column_3932 Column_3933 Column_3934 Column_3935 Column_3936 Column_3937 Column_3938 Column_3939 Column_3940 Column_3941 Column_3942 Column_3943 Column_3944 Column_3945 Column_3946 Column_3947 Column_3948 Column_3949 Column_3950 Column_3951 Column_3952 Column_3953 Column_3954 Column_3955 Column_3956 Column_3957 Column_3958 Column_3959 Column_3960 Column_3961 Column_3962 Column_3963 Column_3964 Column_3965 Column_3966 Column_3967 Column_3968 Column_3969 Column_3970 Column_3971 Column_3972 Column_3973 Column_3974 Column_3975 Column_3976 Column_3977 Column_3978 Column_3979 Column_3980 Column_3981 Column_3982 Column_3983 Column_3984 Column_3985 Column_3986 Column_3987 Column_3988 Column_3989 Column_3990 Column_3991 Column_3992 Column_3993 Column_3994 Column_3995 Column_3996 Column_3997 Column_3998 Column_3999 Column_4000 Column_4001 Column_4002 Column_4003 Column_4004 Column_4005 Column_4006 Column_4007 Column_4008 Column_4009 Column_4010 Column_4011 Column_4012 Column_4013 Column_4014 Column_4015 Column_4016 Column_4017 Column_4018 Column_4019 Column_4020 Column_4021 Column_4022 Column_4023 Column_4024 Column_4025 Column_4026 Column_4027 Column_4028 Column_4029 Column_4030 Column_4031 Column_4032 Column_4033 Column_4034 Column_4035 Column_4036 Column_4037 Column_4038 Column_4039 Column_4040 Column_4041 Column_4042 Column_4043 Column_4044 Column_4045 Column_4046 Column_4047 Column_4048 Column_4049 Column_4050 Column_4051 Column_4052 Column_4053 Column_4054 Column_4055 Column_4056 Column_4057 Column_4058 Column_4059 Column_4060 Column_4061 Column_4062 Column_4063 Column_4064 Column_4065 Column_4066 Column_4067 Column_4068 Column_4069 Column_4070 Column_4071 Column_4072 Column_4073 Column_4074 Column_4075 Column_4076 Column_4077 Column_4078 Column_4079 Column_4080 Column_4081 Column_4082 Column_4083 Column_4084 Column_4085 Column_4086 Column_4087 Column_4088 Column_4089 Column_4090 Column_4091 Column_4092 Column_4093 Column_4094 Column_4095 Column_4096 Column_4097 Column_4098 Column_4099 Column_4100 Column_4101 Column_4102 Column_4103 Column_4104 Column_4105 Column_4106 Column_4107 Column_4108 Column_4109 Column_4110 Column_4111 Column_4112 Column_4113 Column_4114 Column_4115 Column_4116 Column_4117 Column_4118 Column_4119 Column_4120 Column_4121 Column_4122 Column_4123 Column_4124 Column_4125 Column_4126 Column_4127 Column_4128 Column_4129 Column_4130 Column_4131 Column_4132 Column_4133 Column_4134 Column_4135 Column_4136 Column_4137 Column_4138 Column_4139 Column_4140 Column_4141 Column_4142 Column_4143 Column_4144 Column_4145 Column_4146 Column_4147 Column_4148 Column_4149 Column_4150 Column_4151 Column_4152 Column_4153 Column_4154 Column_4155 Column_4156 Column_4157 Column_4158 Column_4159 Column_4160 Column_4161 Column_4162 Column_4163 Column_4164 Column_4165 Column_4166 Column_4167 Column_4168 Column_4169 Column_4170 Column_4171 Column_4172 Column_4173 Column_4174 Column_4175 Column_4176 Column_4177 Column_4178 Column_4179 Column_4180 Column_4181 Column_4182 Column_4183 Column_4184 Column_4185 Column_4186 Column_4187 Column_4188 Column_4189 Column_4190 Column_4191 Column_4192 Column_4193 Column_4194 Column_4195 Column_4196 Column_4197 Column_4198 Column_4199 Column_4200 Column_4201 Column_4202 Column_4203 Column_4204 Column_4205 Column_4206 Column_4207 Column_4208 Column_4209 Column_4210 Column_4211 Column_4212 Column_4213 Column_4214 Column_4215 Column_4216 Column_4217 Column_4218 Column_4219 Column_4220 Column_4221 Column_4222 Column_4223 Column_4224 Column_4225 Column_4226 Column_4227 Column_4228 Column_4229 Column_4230 Column_4231 Column_4232 Column_4233 Column_4234 Column_4235 Column_4236 Column_4237 Column_4238 Column_4239 Column_4240 Column_4241 Column_4242 Column_4243 Column_4244 Column_4245 Column_4246 Column_4247 Column_4248 Column_4249 Column_4250 Column_4251 Column_4252 Column_4253 Column_4254 Column_4255 Column_4256 Column_4257 Column_4258 Column_4259 Column_4260 Column_4261 Column_4262 Column_4263 Column_4264 Column_4265 Column_4266 Column_4267 Column_4268 Column_4269 Column_4270 Column_4271 Column_4272 Column_4273 Column_4274 Column_4275 Column_4276 Column_4277 Column_4278 Column_4279 Column_4280 Column_4281 Column_4282 Column_4283 Column_4284 Column_4285 Column_4286 Column_4287 Column_4288 Column_4289 Column_4290 Column_4291 Column_4292 Column_4293 Column_4294 Column_4295 Column_4296 Column_4297 Column_4298 Column_4299 Column_4300 Column_4301 Column_4302 Column_4303 Column_4304 Column_4305 Column_4306 Column_4307 Column_4308 Column_4309 Column_4310 Column_4311 Column_4312 Column_4313 Column_4314 Column_4315 Column_4316 Column_4317 Column_4318 Column_4319 Column_4320 Column_4321 Column_4322 Column_4323 Column_4324 Column_4325 Column_4326 Column_4327
feature_infos=[0:1] [0:1] none [0:1] [0:1] [0:1] [0:1] [0:1] none [0:1] none [0:1] [0:1] [0:1] [0:1] [0:2] [0:2] [0:1] none none none [0:1] [0:1] [0:1] [0:1] none none [0:1] none [0:1] [0:1] none none [0:1] none [0:1] none none none [0:1] none none none [0:1] none [0:1] [0:1] none [0:1] none [0:1] [0:1] [0:2] none none none none none [0:2] [0:2] none [0:1] [0:1] none none none none [0:1] none [0:1] none [0:1] [0:1] [0:1] none none [0:1] none none none [0:2] none none none none [0:1] [0:1] [0:1] none [0:1] [0:2] [0:1] [0:1] none none none none none none none [0:2] [0:2] [0:1] [0:1] none [0:1] [0:1] none [0:1] none [0:1] [0:1] [0:1] [0:2] [0:1] [0:1] none none none [0:1] [0:2] none [0:1] [0:1] [0:1] [0:1] [0:1] none none none [0:2] none none none none none none none none none none none [0:1] [0:1] none [0:1] none [0:1] [0:1] none none none none none none none none none none none none none [0:1] none none none [0:1] [0:1] none none none [0:1] none none none none none none [0:1] [0:1] none none [0:1] none [0:1] [0:1] none [0:1] none [0:1] [0:1] [0:1] none none [0:1] [0:1] none none [0:1] [0:1] [0:1] [0:1] [0:1] [0:1] [0:1] [0:1] [0:1] [0:1] [0:1] [0:1] [0:1] [0:1] [0:1] [0:1] none [0:1] [0:1] none [0:1] none [0:1] [0:1] none [0:1] [0:1] [0:1] [0:1] [0:1] [0:1] [0:1] none [0:1] [0:1] none [0:1] [0:1] [0:1] [0:1] [0:1] [0:1] [0:1] none [0:1] none [0:1] none [0:1] [0:1] none none none none none none none none none [0:1] none none none none none none none [0:1] none none none none none none [0:1] none none none none [0:1] [0:1] [0:1] none [0:1] [0:1] [0:2] [0:1] none [0:1] [0:1] none none none none none none none [0:2] [0:1] [0:1] [0:2] [0:1] none [0:1] none none [0:1] none [0:1] none [0:1] [0:1] [0:2] none none none [0:1] [0:1] none none [0:1] none [0:2] none none none [0:1] none [0:1] none none none [0:1] none [0:1] none none [0:2] [0:1] [0:1] [0:1] [0:1] [0:1] [0:1] [0:1] [0:1] [0:1] none [0:1] [0:1] [0:1] none [0:2] [0:1] [0:1] [0:1] none [0:1] none [0:1] none none [0:2] [0:1] [0:1] none [0:1] none none none none none [0:1] [0:2] [0:1] [0:1] none [0:1] none [0:1] [0:1] [0:1] none [0:2] none [0:1] none [0:2] none [0:2] none none [0:1] [0:1] none none [0:1] [0:1] [0:1] none [0:1] [0:1] [0:1] [0:1] [0:1] none [0:1] [0:1] none none [0:2] [0:1] none [0:1] none none [0:2] [0:1] [0:1] none [0:1] [0:2] [0:1] none [0:1] [0:1] none [0:1] [0:1] none [0:1] [0:1] [0:1] none [0:2] none none none [0:1] [0:1] none none [0:1] [0:1] none [0:2] [0:1] none none [0:1] [0:2] [0:1] [0:1] none [0:1] none none none [0:1] none [0:1] none none none none none [0:1] [0:2] [0:1] none none none [0:1] [0:1] none [0:1] none [0:1] [0:1] none none none none [0:1] none [0:1] [0:1] [0:1] [0:1] [0:1] [0:1] [0:1] [0:1] [0:1] none none none none [0:2] none [0:1] [0:2] none [0:1] none [0:1] [0:1] [0:1] [0:1] [0:1] [0:1] none none [0:1] none none [0:1] none none none [0:1] none none none none none [0:1] none [0:1] none [0:1] none [0:1] none none none [0:2] none [0:2] none [0:1] none [0:1] none none [0:2] [0:1] none none [0:1] none [0:1] none [0:1] none none none none none [0:1] none none [0:2] [0:1] [0:2] [0:1] [0:1] [0:1] none none [0:1] [0:1] none none none [0:1] none none [0:1] none [0:1] none [0:1] none [0:2] none [0:1] none none [0:1] none none [0:1] [0:1] none [0:1] none none none none none [0:1] none none none [0:3] none none [0:1] none [0:1] [0:1] [0:1] [0:2] [0:1] [0:1] [0:1] none [0:1] none none none [0:1] [0:1] none none none none [0:1] none [0:1] [0:1] [0:1] [0:1] [0:1] [0:1] none none [0:1] none none [0:1] [0:1] [0:1] [0:1] none [0:1] [0:1] none [0:1] none [0:1] none [0:1] none none none [0:1] none none none [0:1] [0:1] [0:1] none none none [0:1] [0:1] [0:1] [0:1] [0:1] none [0:1] [0:1] [0:1] none [0:1] none [0:1] none [0:1] none none none none [0:1] [0:1] none none [0:1] none [0:1] [0:1] [0:1] none none [0:1] none [0:1] none none [0:1] none [0:1] none none none [0:1] none none [0:1] none [0:1] [0:1] [0:1] none [0:2] [0:1] none [0:1] [0:1] none [0:1] [0:1] none [0:1] [0:1] [0:1] [0:1] none none none [0:1] [0:1] [0:1] none none none [0:1] [0:1] [0:1] [0:1] [0:1] [0:1] [0:1] [0:1] [0:1] none [0:1] [0:1] [0:1] [0:1] [0:1] [0:1] [0:1] [0:1] [0:1] none [0:1] none none [0:1] [0:1] none none none [0:1] none [0:1] none none none none [0:1] [0:1] none [0:3] [0:2] none none none none [0:1] none [0:1] none none [0:1] [0:1] [0:1] [0:1] [0:1] none [0:1] [0:1] [0:1] [0:1] none none [0:1] none [0:1] [0:1] [0:1] [0:1] none none [0:1] none [0:1] none none none [0:1] [0:2] none [0:1] [0:1] [0:1] [0:1] none [0:1] none none [0:1] [0:1] none [0:2] none none none none [0:1] [0:1] none none none [0:1] none none none [0:1] [0:1] none [0:1] none none [0:1] [0:1] none [0:1] [0:1] [0:1] none [0:1] none [0:1] none none [0:1] [0:1] none [0:1] none [0:1] none none none none none [0:1] none none none [0:1] none none [0:1] none none [0:1] none none [0:1] none [0:1] none [0:1] none none none none [0:1] [0:1] none none none none none none [0:1] none [0:1] [0:1] [0:1] [0:1] none none [0:2] [0:1] [0:1] [0:1] [0:1] none [0:1] [0:1] [0:1] [0:1] [0:1] [0:1] none [0:1] none [0:1] [0:1] [0:1] none none none [0:1] none [0:1] [0:1] none [0:1] none none none [0:1] [0:1] [0:1] none [0:1] none none none none none [0:1] none none [0:1] [0:1] none [0:1] none [0:1] [0:1] none [0:1] none [0:1] none [0:1] none none none none [0:2] none none [0:2] [0:1] [0:1] [0:1] [0:1] [0:1] none none [0:1] none [0:1] none [0:1] [0:1] none none [0:1] [0:1] none [0:1] none none none none none [0:1] [0:1] none none none [0:1] [0:1] none none none [0:1] [0:1] none none [0:1] none none [0:1] [0:1] none [0:1] [0:1] [0:1] none [0:1] none [0:1] [0:1] [0:1] [0:1] [0:1] none [0:1] [0:1] none none [0:1] [0:1] [0:1] [0:1] none none [0:1] none none [0:1] none none none [0:2] none none [0:1] none [0:1] none none none [0:1] [0:1] [0:1] [0:1] none [0:1] none none none [0:1] [0:1] none none [0:1] none [0:1] [0:1] [0:1] [0:1] [0:1] [0:1] none [0:1] [0:1] [0:1] [0:1] [0:1] none none none [0:1] none [0:1] none none [0:1] none none [0:1] none [0:1] none none [0:1] none none [0:1] [0:1] [0:1] [0:1] none [0:1] none [0:1] [0:1] [0:1] none none none [0:1] none none none [0:1] [0:1] none none none [0:1] none [0:1] [0:1] none [0:1] none none [0:1] [0:1] none none none [0:1] none none [0:3] [0:1] none [0:1] [0:1] [0:1] none [0:1] [0:1] [0:1] none [0:1] [0:1] none none none [0:1] [0:1] none [0:1] none none [0:1] [0:2] none [0:1] [0:1] none [0:1] none none [0:1] [0:1] none [0:1] [0:1] none none none [0:2] [0:1] [0:1] none none none none [0:1] [0:2] none none none none [0:1] none [0:1] none [0:1] [0:1] none none none [0:1] none [0:1] [0:1] [0:1] none [0:1] none [0:1] [0:1] [0:1] none [0:1] none [0:1] none none [0:1] [0:1] [0:1] [0:1] [0:1] [0:1] [0:1] none none [0:1] none none [0:1] [0:1] [0:2] none none none none [0:1] none none [0:1] [0:1] [0:1] [0:1] [0:1] [0:1] [0:1] none [0:1] none none none none none [0:1] [0:1] [0:1] none none [0:1] [0:1] [0:1] none [0:1] [0:1] none [0:1] [0:1] [0:1] none none none [0:2] [0:1] none none [0:1] none [0:1] [0:1] [0:1] [0:1] none [0:1] [0:1] [0:1] none [0:1] [0:1] none none [0:1] none [0:1] [0:1] [0:1] none [0:1] none none none none none none none none none none [0:1] none none [0:1] none [0:1] none [0:1] [0:1] none none none none [0:1] none none none [0:1] none [0:1] none [0:1] none [0:1] none none none none [0:1] none none none none none none none none [0:1] [0:1] [0:1] none none [0:1] [0:1] [0:1] [0:1] [0:1] none none [0:1] none none none [0:2] [0:2] [0:1] none [0:2] [0:1] none none none [0:1] [0:1] none none none [0:1] none [0:1] [0:1] none none [0:1] [0:1] none [0:1] none [0:1] [0:1] [0:1] none [0:1] [0:1] [0:1] none [0:1] none none [0:1] none none none [0:1] [0:1] none [0:1] [0:1] none [0:1] none [0:1] none [0:1] none [0:1] [0:1] none none [0:1] none [0:1] none [0:1] [0:1] [0:1] none [0:1] none [0:1] [0:1] [0:1] [0:2] [0:1] none none [0:1] none none [0:1] none [0:1] [0:1] [0:1] none none none none [0:1] none none none none none none [0:1] none none none [0:1] none [0:1] none none none none [0:1] none none [0:1] none none none none none [0:1] none none [0:1] [0:1] none none none none [0:1] none [0:1] none [0:1] none none [0:1] [0:1] none none none none none none none [0:1] none [0:1] [0:1] none none [0:1] none [0:1] none none none [0:1] [0:1] [0:1] none [0:1] none [0:1] [0:1] none [0:2] [0:1] none [0:1] none [0:1] none [0:1] none none [0:1] [0:1] none none none none none none none none [0:1] [0:1] [0:2] none [0:1] none [0:1] none none none [0:1] [0:1] [0:1] none [0:1] [0:1] none [0:1] none [0:1] [0:1] [0:1] none [0:1] none none [0:1] [0:1] [0:1] [0:1] none none none none none none [0:1] none [0:1] [0:1] [0:1] [0:1] [0:1] none none none none none [0:1] [0:1] [0:1] [0:1] [0:1] none none none [0:1] none none none [0:1] [0:1] [0:1] none none none [0:1] none none none none none [0:1] [0:1] none [0:1] none none [0:1] none none [0:1] none [0:1] [0:1] none none none none [0:1] [0:1] [0:1] none [0:1] [0:1] none none [0:1] [0:2] [0:2] none none [0:1] [0:1] none none [0:1] none none none none none [0:1] [0:1] none none [0:1] [0:1] none none none none [0:1] none [0:1] none [0:1] none none [0:1] none none none none none none none [0:1] [0:1] none none none none [0:1] [0:1] none none none none none none [0:1] none [0:1] none [0:1] none none [0:1] none none none [0:1] [0:1] [0:1] none none [0:1] none none none none [0:1] none none [0:1] none [0:1] [0:1] [0:1] none none none none none none none [0:1] none none none none none [0:1] [0:1] none none [0:2] none [0:1] [0:1] none [0:1] none none none none [0:1] [0:1] [0:1] [0:1] [0:1] none [0:1] none none none none none none [0:1] [0:1] [0:1] none [0:1] none none none none none none [0:1] [0:1] none none none [0:1] none none none none none [0:1] [0:1] none [0:1] [0:1] [0:1] [0:1] [0:1] [0:1] none [0:1] [0:1] [0:1] none [0:1] [0:1] [0:1] [0:1] none [0:1] [0:1] none none [0:1] none none [0:1] none none [0:1] [0:1] [0:1] [0:1] none none none [0:1] [0:1] none none [0:1] none [0:1] none none none [0:1] none none none none [0:1] none [0:3] none [0:1] none [0:1] none none none [0:1] none [0:1] none [0:1] none none [0:2] [0:1] none none [0:1] [0:1] [0:1] none [0:1] none [0:1] [0:1] none [0:1] none none none [0:2] none [0:1] [0:1] [0:2] [0:1] none [0:1] none [0:1] none [0:1] [0:1] [0:1] [0:1] [0:1] none [0:1] [0:1] [0:1] [0:2] [0:1] none none none none none none [0:1] none [0:1] [0:1] [0:1] none [0:1] [0:1] none none [0:1] none none [0:1] none none none none [0:1] none none [0:1] none [0:1] none none [0:1] [0:1] [0:1] none none [0:1] none none [0:1] none none none none [0:1] [0:2] none none none [0:1] none none [0:1] none [0:1] [0:1] [0:1] none none none none none [0:1] [0:1] none [0:1] none none [0:1] none [0:1] none none none none none [0:2] [0:1] none [0:1] [0:1] none none [0:1] none [0:1] [0:1] none none none none none none [0:1] [0:1] [0:1] none none [0:1] [0:1] [0:1] [0:2] [0:1] none [0:1] [0:1] none [0:1] [0:1] none none none [0:1] [0:1] [0:1] [0:1] [0:1] none none none none none [0:1] none [0:1] [0:1] [0:1] [0:1] [0:1] none none none [0:2] [0:1] [0:1] none [0:1] [0:3] [0:1] none [0:1] none none none [0:1] [0:1] [0:1] [0:1] none none [0:2] none none none none none [0:1] [0:1] [0:1] none none none none none none [0:1] [0:1] none none none [0:1] none none none none none none [0:2] [0:1] [0:1] none [0:1] none [0:1] none [0:1] none none [0:1] none [0:1] none none none [0:1] none [0:1] [0:1] none none [0:1] none [0:2] none none none none none none [0:1] none none [0:1] [0:2] [0:2] none [0:1] none none [0:1] none [0:1] none none [0:1] [0:2] [0:1] none [0:1] none none none none none none none none [0:1] [0:1] none [0:1] [0:1] none [0:1] [0:1] none none [0:1] none none none [0:1] none none [0:1] [0:1] none none [0:1] none none [0:1] none none none none [0:1] [0:1] [0:2] [0:2] [0:1] [0:1] [0:1] [0:1] [0:1] none none none [0:1] none none [0:1] [0:1] [0:1] [0:1] [0:1] [0:1] none none none none none [0:1] [0:1] [0:1] none none none none [0:1] [0:1] none none none none none none none none [0:1] none [0:1] [0:1] [0:1] none [0:1] none none [0:1] [0:1] [0:1] none none none none [0:1] [0:1] [0:1] none [0:1] [0:1] none [0:1] none [0:1] [0:1] [0:1] none [0:1] none [0:1] none none [0:1] [0:1] none none none [0:1] none none none [0:1] [0:1] [0:1] [0:1] none [0:1] [0:1] [0:1] [0:1] [0:1] [0:1] none none [0:1] [0:1] [0:1] [0:1] [0:2] none [0:1] none [0:1] none [0:1] none none none [0:2] [0:1] [0:1] [0:1] none [0:1] [0:1] none [0:1] none [0:1] [0:1] [0:1] [0:1] [0:1] [0:1] none [0:1] [0:1] none [0:1] none none [0:1] none [0:1] [0:2] [0:1] none [0:1] none [0:1] none [0:2] [0:1] none [0:1] none [0:1] none none [0:1] none [0:1] [0:1] [0:1] none none none [0:2] none none none [0:1] [0:1] none none none none none [0:2] none [0:1] [0:1] [0:1] none [0:1] [0:1] none none none none none none [0:1] none [0:1] [0:2] none [0:1] none [0:1] [0:1] [0:1] [0:1] none [0:1] none [0:1] none [0:1] none [0:1] none none none [0:1] none none [0:1] none [0:1] none [0:1] none [0:1] none [0:1] none none [0:1] [0:2] [0:1] [0:1] none none [0:1] [0:1] [0:1] none [0:1] none [0:1] none none none none [0:1] none none none none [0:1] [0:1] none [0:1] none [0:2] none none [0:1] [0:1] none none [0:1] [0:1] none [0:1] [0:1] [0:1] [0:1] [0:1] none none [0:1] none [0:1] [0:1] [0:1] none none none none none none [0:1] [0:1] none none [0:1] none none [0:1] none [0:2] [0:1] [0:1] [0:2] none none none none none none none none [0:1] [0:1] [0:1] [0:1] none none none none none [0:2] none none none none none [0:1] none none none none none none [0:1] none none [0:1] [0:1] none none none [0:1] [0:1] [0:2] none [0:1] [0:1] none none none none [0:1] none [0:1] [0:1] [0:1] [0:1] none none none none [0:1] [0:1] [0:1] none none [0:1] none none [0:1] none [0:1] none none none none [0:1] none [0:1] [0:1] none none none none none [0:1] none [0:1] [0:1] [0:1] [0:1] [0:1] [0:1] none [0:1] [0:1] none [0:1] [0:1] [0:1] none [0:1] none [0:1] [0:1] none none [0:1] [0:1] none [0:1] [0:1] none none none none [0:1] [0:1] none none none none [0:1] [0:1] [0:1] [0:1] none none none [0:2] [0:1] none none [0:1] [0:1] [0:1] [0:1] [0:1] [0:1] [0:1] [0:1] none none none none [0:1] none [0:1] [0:1] none none none none none [0:1] [0:1] [0:1] [0:1] [0:1] [0:1] [0:1] [0:1] none none none none none [0:1] none [0:2] [0:1] none none [0:1] [0:1] [0:1] [0:1] [0:1] [0:1] [0:1] none [0:1] none [0:1] none none [0:1] none none [0:1] [0:1] none none [0:1] none none none none none none none none [0:1] none none [0:1] [0:1] [0:1] none none none [0:1] none none [0:1] [0:1] none none [0:1] [0:1] [0:1] [0:1] none none [0:1] none none none [0:1] none none none none none [0:1] none [0:1] [0:1] [0:1] [0:1] [0:1] [0:1] none none none none none [0:1] none none none [0:1] none none [0:2] none [0:1] [0:1] none [0:1] none [0:1] none [0:1] [0:1] [0:1] [0:1] [0:1] none none [0:1] none [0:1] [0:1] [0:1] none [0:2] [0:1] none [0:1] [0:1] [0:1] [0:1] [0:1] none [0:1] none none none none none none none none none [0:1] none [0:1] none none none [0:1] none [0:1] none none none none [0:1] none [0:1] [0:1] [0:1] [0:1] [0:1] [0:2] [0:1] [0:2] [0:1] [0:1] [0:1] none none none [0:1] [0:1] [0:1] [0:1] [0:1] none none [0:1] [0:1] [0:1] none none [0:1] none none none [0:1] [0:1] [0:1] none [0:1] [0:1] none [0:1] none [0:2] none none none [0:1] none [0:1] [0:1] [0:1] [0:1] [0:1] [0:1] none [0:1] [0:1] [0:2] [0:1] [0:1] [0:1] none none none none none none none none [0:2] [0:1] [0:1] [0:1] none none none none none [0:1] none none none none [0:1] none [0:1] [0:1] [0:1] none [0:1] [0:1] [0:1] [0:1] none none none none none [0:1] [0:1] [0:1] [0:1] [0:2] none [0:1] none [0:1] [0:2] none [0:1] none none none none [0:1] none [0:1] none none none [0:1] [0:1] none none [0:1] [0:1] [0:1] none [0:1] none [0:1] none none [0:1] none [0:1] none [0:1] [0:1] [0:1] none [0:1] [0:1] [0:1] [0:1] [0:1] [0:1] none [0:1] none none [0:1] [0:1] none [0:1] none [0:1] none [0:1] none none [0:1] none [0:1] [0:1] none none none none [0:1] none [0:1] [0:1] none [0:1] [0:1] none [0:1] none [0:1] [0:2] none [0:1] [0:1] none [0:1] none [0:1] none none [0:1] [0:1] none none [0:1] [0:1] [0:1] none none none none none [0:1] [0:1] [0:1] [0:1] none none [0:1] none none none none none none [0:1] [0:1] none none none [0:1] [0:1] none none [0:1] [0:1] [0:1] [0:1] none none none [0:1] [0:1] [0:1] none [0:1] [0:1] [0:1] none [0:1] [0:1] none [0:1] none [0:1] none none none [0:1] none [0:1] [0:1] none none [0:1] [0:1] [0:1] [0:1] [0:1] [0:2] none none none [0:1] none [0:1] [0:1] [0:1] none none none [0:1] none [0:1] none none [0:1] none none [0:1] [0:1] none none none [0:1] none [0:1] none none [0:1] [0:1] none none [0:1] [0:1] [0:1] [0:1] none none none none [0:1] [0:1] [0:1] none [0:1] none [0:2] [0:1] [0:1] [0:1] [0:2] [0:1] [0:1] [0:1] none none [0:1] [0:1] none [0:1] none [0:1] none [0:1] [0:1] none [0:1] [0:1] [0:1] [0:1] none none none none [0:2] [0:1] none [0:1] none [0:1] [0:1] [0:1] [0:1] [0:1] none none [0:1] none none [0:1] none [0:1] none [0:1] none none none [0:1] none none none none none [0:1] none none none none [0:1] [0:1] [0:1] [0:1] none none none none [0:1] [0:1] none none [0:1] [0:1] none [0:1] none none none [0:1] [0:1] none [0:2] [0:1] [0:1] none [0:1] [0:1] [0:2] [0:1] none [0:1] [0:1] [0:1] none none none [0:1] [0:1] none [0:1] [0:1] [0:1] [0:1] none none [0:1] [0:1] [0:1] [0:1] none none [0:1] [0:2] none none [0:1] none none [0:1] none [0:2] none none [0:1] none [0:2] [0:1] [0:1] none none [0:1] none none none none none [0:1] none none none none [0:1] none [0:1] none none [0:1] [0:1] none none none none [0:1] none [0:1] [0:1] none [0:1] [0:1] [0:1] [0:2] none [0:1] none none [0:1] [0:1] none [0:1] [0:2] none none none [0:1] none none [0:1] [0:1] [0:1] [0:1] none none [0:1] none [0:1] [0:1] none none [0:1] [0:1] none [0:2] none [0:1] [0:1] none [0:1] [0:1] [0:1] none [0:1] [0:1] [0:1] none [0:1] none [0:1] [0:1] [0:1] [0:1] [0:1] [0:1] [0:1] none none none [0:1] none none none [0:1] none none none none none [0:1] none none [0:1] [0:1] none none none none [0:1] [0:1] none none [0:1] [0:1] [0:1] [0:1] [0:1] none [0:1] none none none none none none none none [0:1] [0:1] none [0:1] [0:1] [0:1] none [0:1] none none [0:1] [0:1] [0:1] none [0:1] [0:2] [0:1] none [0:1] [0:1] [0:1] none none none none [0:1] [0:1] [0:1] [0:1] [0:1] none none none [0:1] [0:1] [0:1] none none none [0:1] none [0:1] [0:1] none none none [0:1] none [0:1] none none none none none none [0:1] [0:1] none [0:1] none none [0:2] none none none [0:1] none [0:1] [0:1] [0:2] none [0:1] none [0:1] [0:1] [0:1] none none [0:2] [0:1] none none [0:1] [0:1] none none none [0:1] none none [0:1] none [0:1] [0:1] [0:1] [0:1] none none none none none none none [0:1] none none [0:1] [0:1] none [0:1] none [0:1] [0:1] none none none none none [0:1] none [0:1] none none none none none none none none [0:1] none none none [0:1] none none [0:1] [0:1] none none [0:1] [0:1] [0:1] [0:1] [0:1] none [0:1] [0:1] none none [0:1] none none [0:1] none none [0:1] [0:1] [0:1] none [0:1] [0:1] [0:1] none none none none [0:1] [0:1] [0:1] [0:1] [0:1] [0:1] [0:1] [0:1] [0:1] [0:1] [0:1] [0:1] none none [0:1] none [0:1] [0:1] none [0:1] [0:1] [0:2] [0:1] [0:1] none [0:1] [0:1] none none [0:1] none none none [0:1] none none none none [0:1] none none [0:1] none [0:1] [0:2] [0:1] none [0:2] [0:1] [0:1] none none [0:1] none none [0:2] [0:1] [0:1] none none none none none [0:1] none none [0:1] [0:1] [0:1] none [0:1] none none none none none [0:1] none none none none none none [0:1] none none none [0:1] [0:1] [0:1] [0:1] none [0:1] none [0:1] [0:1] [0:1] [0:1] [0:1] none [0:1] none none none none [0:2] [0:1] [0:1] [0:1] none [0:1] none [0:1] [0:1] none none [0:1] [0:1] [0:1] none [0:1] [0:1] none [0:1] [0:1] none [0:1] [0:1] none [0:1] none [0:1] none [0:1] none [0:1] none none [0:1] [0:1] [0:1] [0:1] [0:1] none [0:2] [0:1] [0:1] [0:1] none [0:1] none none none none none [0:1] none [0:1] none [0:1] [0:1] [0:1] none none [0:2] [0:2] none [0:2] [0:1] none none [0:1] [0:1] [0:1] [0:2] none [0:1] [0:1] none none [0:1] none none [0:1] [0:1] [0:1] [0:1] none none none none none none [0:2] [0:1] [0:1] [0:1] [0:1] [0:1] [0:1] [0:1] none none none none [0:1] none none [0:1] none [0:2] [0:1] [0:1] [0:1] none [0:1] none none none none none none [0:1] none none none [0:1] none none [0:1] none none [0:2] [0:1] [0:1] [0:1] [0:1] [0:1] [0:1] [0:1] [0:1] none none [0:1] [0:1] [0:1] none [0:1] none none [0:1] none none none [0:1] [0:1] [0:2] none none [0:1] none [0:1] none none [0:1] [0:1] [0:1] none [0:1] [0:1] none none none [0:1] [0:1] [0:1] [0:1] [0:1] none none none [0:2] [0:1] none none [0:1] none none none none none none none [0:1] [0:1] none [0:2] none [0:1] [0:1] none none [0:1] [0:1] none [0:2] [0:1] none [0:1] none [0:1] none none none [0:1] [0:1] none none none none none [0:1] none [0:1] none none none [0:2] [0:1] [0:1] none [0:1] none [0:1] none [0:1] [0:1] none none none none none [0:1] [0:1] [0:1] none [0:1] [0:1] none none [0:1] none [0:1] [0:1] none [0:1] [0:1] [0:1] none none none [0:1] [0:1] [0:1] [0:1] none none [0:1] none none none [0:1] [0:1] [0:1] none [0:1] none [0:1] [0:1] none [0:1] [0:1] none none [0:1] none [0:1] none [0:1] none none none none [0:2] [0:1] none none none [0:1] none none [0:1] [0:1] none [0:1] [0:1] none none none [0:1] none [0:1] none [0:1] none [0:1] none none none none none none [0:1] [0:2] none [0:2] none [0:1] none none [0:1] none none [0:1] [0:1] [0:1] none none none none none [0:1] [0:1] none none none none none [0:1] none [0:1] none none [0:2] [0:2] [0:1] [0:1] none none [0:1] [0:1] [0:1] none none [0:1] [0:1] none none none [0:1] [0:1] [0:1] none none [0:1] none [0:1] none [0:1] none [0:1] [0:1] [0:1] [0:1] none none none none none none none [0:1] [0:1] [0:1] [0:1] none none none [0:2] [0:1] [0:1] none none none none none [0:1] [0:1] [0:1] none [0:1] [0:1] none none [0:1] [0:1] [0:1] none [0:1] none [0:1] [0:1] none none none none none [0:1] none [0:1] none none none [0:1] none none [0:1] none [0:1] [0:2] [0:1] none none none [0:1] [0:1] [0:1] none none none [0:1] none [0:1] none [0:1] none [0:1] none none [0:1] [0:1] none none none none none [0:1] none none none none [0:1] [0:1] none [0:1] none none [0:1] [0:1] none [0:1] none [0:1] [0:1] [0:1] [0:1] none none [0:1] [0:1] none none [0:1] none [0:1] [0:1] none none none none [0:1] none [0:1] [0:1] none [0:2] none none none none [0:1] [0:2] [0:1] none [0:1] [0:1] [0:1] none none [0:1] [0:1] none none [0:1] [0:1] [0:1] none none [0:1] [0:1] [0:1] [0:1] none [0:1] [0:1] none [0:1] [0:1] [0:1] [0:1] none none [0:1] none [0:2] none [0:1] none none none none none none none none [0:1] none [0:1] [0:1] none none none [0:1] none none none [0:1] none [0:1] [0:1] none [0:1] none [0:1] none [0:1] [0:1] [0:1] [0:1] [0:2] [0:1] [0:1] [0:1] [0:1] [0:1] [0:1] [0:1] none [0:1] none [0:1] none none none none none none none [0:3] none none none none [0:1] none none none [0:1] [0:1] [0:1] [0:1] [0:1] none [0:1] [0:1] [0:1] [0:1] none none [0:1] none none none [0:1] [0:1] none [0:1] [0:1] none none none [0:1] none none [0:1] none [0:1] [0:1] [0:1] [0:1] none [0:1] [0:1] [0:1] none [0:2] [0:1] [0:1] [0:2] [0:2] [0:1] [0:1] none [0:1] [0:1] [0:1] none [0:1] none [0:1] none [0:1] none [0:1] none [0:1] none none [0:1] none [0:1] [0:1] none [0:1] none [0:1] none [0:1] [0:1] [0:1] none none [0:1] none [0:1] [0:1] [0:1] none none [0:1] none none none none none [0:1] none [0:1] [0:1] none [0:1] [0:1] [0:1] none none [0:2] [0:1] [0:1] [0:1] none none none [0:1] [0:2] [0:1] [0:1] [0:1] [0:1] none [0:1] none none none none none none none [0:1] [0:1] [0:1] [0:1] [0:1] [0:1] none [0:1] [0:1] none [0:1] none none none [0:1] [0:1] none [0:1] [0:1] [0:1] [0:1] none [0:1]
tree_sizes=847 845 762 846 853 855 750 753 588 581 764 675 587 845 848 770 760 757 762 671 583 584 849 852 585 583 758 500 671 755 853 586 500 589 589 588 751 669 844 755 755 503 587 585 678 584 673 675 584 502 677 587 585 674 679 760 586 501 757 678 763 589 581 503 588 585 501 588 501 504 589 759 670 592 501 662 588 583 502 502 584 505 591 500 501 586 502 590 673 588 674 588 503 677 583 584 670 763 502 503 591 504 592 591 762 505 677 678 587 593 503 768 505 760 771 587 503 676 591 502 591 500 504 760 680 502 583 682 504 592 681 499 503 682 764 591 502 507 767 679 593 506 504 506 678 501 501 676 678 589 590 597 679 507 503 679 589 589 588 766 502 505 505 677 588 671 588 505 680 679 589 504 589 674 589 588 505 506 507 596 506 594 508 591 500 502 677 587 594 589 598 503 679 503 503 504 679 505 504 677 591 504 502 672 503 505 503 588 505 502 858 505 592 505 502 673 586 505 678 669 589 677 501 506 683 685 753 591 502 592 503 591 503 765 500 682 504 505 771 589 504 507 504 767 504 502 590 772 588 589 503 506 504 591 509 505 768 764 768 505 678 503 503 593 505 595 505 509 684 506 677 591 503 673 505 503 680 592 503 503 676 855 676 588 593 676 596 681 501 506 502 504 502 589 594 505 588 502 594 593 501 508 763 591 592 677 503 594 504 591 590 504 588 505 674 505 505 591 676 593 765 591 595 502 591 677 769 674 503 504 504 595 502 587 762 508 508 586 506 504 504 503 502 503 498 672 678 586 501 681 595 854 587 505 778 764 505 498 674 502 589 503 502 503 590 507 508 508 773 588 503 504 768 766 592 505 680 593 771 592 679 504 766 505 502 502 677 502 503 593 502 589 503 863 774 683 504 588 504 507 679 598 504 502 504 592 596 501 679 504 675 597 501 592 762 596 592 587 592 762 495 504 595 589 597 670 591 588 772 501 593 504 586 503 505 500 504 590 504 506 763 589 589 504 772 504 682 591 675 502 870 504 504 507 773 680 589 595 504 669 504 681 502 595 595 504 596 504 592 503 677 583 682 672 677 590 772 764 859 502 588 590 775 685 593 590 683 598 597 601 506 852 767 776 597 505 682 592 505 503 506 507 767 588 589 504 504 504 678 507 594 504 588 586 505 501 679 780 593 587 505 586 777 589 590 506 504 769 787 778 504 681 594 504 677 503 684 766 504 507 596 772 679 595 504 589 592 503 501 686 503 598 756 592 595 508 503 761 507 596 599 591 506 596 512 508 595 677 770 586 593 768 594 596 508 592 506 683 779 689 506 682 764 677 508 597 679 510 509 595 763 772 681 593 503 767 504 503 592 507 685 508 507 590 682 507 506 506 686 503 678 689 685 592 594 507 781 595 763 505 765 768 504 507 506 510 856 503 869 681 588 505 505 596 680 602 683 506 593 505 508 861 769 505 591 596 682 508 511 677 506 598 593 768 506 504 506 595 599 591 595 770 505 504 685 682 688 678 594 510 683 509 689 509 595 505 504 507 508 584 510 509 505 594 867 776 765 507 507 592 788 507 596 593 598 599 507 508 600 688 692 591 508 687 600 592 508 781 683 598 595 509 602 688 693 684 504 507 679 772 603 595 507 510 508 508 508 506 505 507 597 506 595 504 590 592 591 508 596 776 674 509 506 594 594 509 509 686 602 509 509 510 678 590 510 508 777 510 600 504 595 676 509 510 502 859 685 686 596 686 685 682 509 698 859 775 862 591 686 592 688 594 592 506 511 599 691 506 770 594 595 597 508 604 599 591 771 605 598 688 507 680 507 506 506 507 507 510 595 681 506 680 598 593 507 509 506 598 597 508 508 594 686 504 600 679 508 684 770 506 594 593 597 510 508 598 689 779 508 507 766 763 507 690 598 585 685 595 511 510 683 507 687 505 689 598 509 509 779 598 864 688 507 868 782 775 596 597 506 509 507 688 686 594 592 594 591 507 505 509 598 598 513 509 690 510 686 506 509 511 686 600 682 686 596 592 505 507 771 600 600 773 778 510 506 509 769 774 600 601 509 695 508 507 685 499 602 682 593 596 508 596 684 689 508 605 679 683 504 508 503 506 509 505 507 508 507 510 510 505 683 593 682 595 694 862 507 596 598 775 683 686 509 507 601 778 599 597 511 597 866 683 599 681 596 603 776 598 782 687 690 691 686 510 601 780 686 598 510 595 596 597 597 596 597 599 600 507 508 778 687 596 775 600 599 508 685 600 598 507 687 682 688 599 596 688 594 597 684 506 596 510 599 509 510 510 773 509 512 768 601 512 513 510 508 603 602 681 684 506 595 598 600 507 510 511 684 776 594 592 692 513 688 686 511 692 598 596 598 773 597 682 771 508 690 507 508 684 510 597 676 511 509 770 508 509 512 512 507 596 512 509 689 686 509 779 600 507 602 507 511 691 511 512 597 510 687 513 511 687 510 505 606 694 604 690 598 597 600 511 697 603 598 599 510 598 685 509 690 596 507 597 607 690 510 596 510 509 509 686 511 696 512 505 509 507 514 510 511 511 596 599 688 780 686 686 600 775 689 686 782 603 780 509 599 514 600 595 506 510 595 772 605 777 786 509 510 506 511 600 689 598 601 685 512 680 509 774 594 510 508 510 510 595 508 513 779 511 690 689 598 598 684 512 690 510 598 779 682 510 772 864 684 689 690 690 511 508 507 511 512 600 512 509 689 603 597 606 601 508 692 511 507 594 510 693 508 509 511 509 511 596 509 596 507 776 507 510 510 509 511 598 880 608 862 599 775 601 770 509 692 775 683 594 689 598 687 774 683 597 512 508 693 511 773 595 696 607 781 509 600 510 603 600 511 601 510 683 596 511 514 696 512 514 597 513 598 512 506 512 589 503 505 510 597 514 682 778 677 509 692 775 688 505 773 600 508 598 771 507 510 509 599 595 602 599 692 510 781 600 600 602 600 604 601 602 689 597 510 510 510 597 511 508 601 510 513 600 510 602 870 503 771 504 780 513 775 601 597 596 598 509 510 510 603 511 513 598 688 606 507 774 509 511 602 508 597 512 512 508 688 601 509 513 512 508 601 514 511 512 512 512 600 596 599 692 602 603 598 596 686 511 597 597 509 603 512 601 507 506 506 509 511 600 602 687 601 512 685 595 511 509 512 508 779 508 686 600 509 509 506 505 772 599 694 509 508 690 598 510 684 596 770 683 511 511 601 598 697 509 600 505 862 509 598 510 509 506 510 597 510 681 599 512 600 685 599 598 866 866 687 506 686 603 771 594 601 601 599 683 599 597 685 510 598 600 511 785 599 508 601 509 596 600 509 511 509 688 594 508 512 512 514 513 510 602 775 778 779 779 782 782 785 781 689 784 784 783 781 783 777 509 509 603 783 780 690 688 687 777 597 775 594 600 683 784 772 596 595 598 508 700 686 864 509 602 778 684 601 602 509 597 593 511 694 508 511 687 695 510 689 690 688 684 600 596 596 596 599 597 512 597 600 695 510 510 601 684 510 781 597 877 778 511 683 590 688 775 511 509 602 598 511 601 509 509 511 509 513 596 596 509 512 511 512 596 602 597 601 511 508 512 509 771 510 596 599 512 604 595 509 510 509 509 507 509 513 691 604 506 692 510 512 507 687 507 510 511 511 690 600 511 599 685 859 591 866 511 784 597 690 512 600 510 598 510 598 598 689 509 509 599 600 508 507 513 509 597 513 510 604 786 687 598 599 599 594 687 780 777 598 686 777 873 599 511 510 511 508 511 510 606 778 510 686 604 692 688 687 596 596 691 875 605 778 604 597 514 598 599 511 606 687 513 602 600 598 688 599 599 512 695 602 594 600 779 684 776 507 512 775 508 686 773 596 598 600 507 508 512 509 509 509 509 509 509 690 506 511 510 597 596 597 597 600 598 597 509 507 778 682 687 692 599 601 512 603 773 596 513 603 771 684 695 507 776 600 509 510 506 689 509 513 510 603 511 509 508 508 510 509 511 511 508 512 509 510 597 597 511 511 512 693 512 693 599 688 783 509 607 695 875 512 512 599 602 514 511 602 599 601 511 690 589 684 692 694 694 509 513 509 777 691 603 776 604 605 510 509 510 507 600 511 511 511 510 512 509 510 507 778 598 693 600 509 512 691 514 510 595 599 689 598 682 597 599 688 600 510 599 511 682 598 512 512 600 691 595 601 600 510 684 603 511 509 776 595 511 694 509 514 692 783 511 772 511 690 596 605 511 510 597 602 511 697 511 601 505 510 593 511 510 599 687 597 598 599 603 601 510 509 510 601 597 774 599 508 790 595 777 693 514 603 870 871 688 514 685 511 599 511 600 512 773 597 776 599 509 512 512 512 509 512 511 509 510 506 511 510 509 510 512 510 510 508 512 512 510 515 514 512 510 510 511 510 512 511 507 514 511 507 511 511 510 511 510 511 598 509 510 508 510 510 508 510 508 511 510 602 507 510 513 600 698 511 601 506 510 512 509 509 508 509 510 510 510 511 509 506 510 510 509 510 509 508 508 510 509 507 510 505 509 509 509 512 510 512 508 509 511 512 510 510 512 509 509 511 514 512 513 512 510 509 510 511 510 507 510 871 510 684 511 512 598 509 510 511 510 510 511 601 690 691 692 510 512 511 508 864 509 595 512 599 509 875 697 693 693 601 509 683 511 507 602 599 513 511 511 511 511 691 512 686 600 601 511 508 511 773 691 508 515 599 513 598 601 693 511 510 512 508 511 511 511 509 513 512 514 511 511 690 509 512 602 509 603 511 509 511 692 600 507 691 601 598 597 598 600 598 511 511 509 508 510 510 684 601 602 601 597 598 509 506 508 509 510 509 511 509 506 508 509 505 596 600 608 601 600 511 511 598 511 509 510 873 507 510 507 510 510 509 511 510 511 509 508 511 510 511 509 511 512 598 509 510 507 507 508 510 510 510 510 510 511 511 510 511 510 510 512 510 512 509 512 508 513 512 511 511 511 512 511 509 511 511 511 510 512 511 511 510 513 509 603 686 690 599 692 599 598 599 693 606 788 599 511 509 693 511 512 511 510 510 513 510 512 513 512 511 512 508 507 599 509 514 603 688 684 512 507 513 511 512 511 513 511 600 510 782 509 510 513 510 512 516 516 514 510 510 511 513 512 513 514 597 600 513 689 510 691 508 510 513 510 604 512 511 511 513 512 509 510 512 513 509 510 694 692 690 514 512 511 509 513 512 511 517 517 600 685 604 598 507 512 510 508 510 511 687 512 509 509 513 510 512 510 509 510 510 511 507 511 597 596 597 603 597 512 513 513 510 600 512 514 606 508 683 507 511 510 512 595 597 511 598 601 510 598 599 509 601 511 511 598 510 599 510 509 510 599 600 596 514 773 512 685 512 599 510 513 599 604 599 510 783 690 771 602 686 599 604 512 600 511 511 511 602 600 600 513 598 596 598 601 698 599 790 686 508 687 512 688 605 775 687 597 690 789 604 691 513 686 602 600 510 511 510 510 509 511 511 603 508 511 511 510 509 511 510 510 687 508 603 601 511 601 598 511 513 511 510 510 600 599 507 511 512 511 510 511 509 511 513 509 510 511 510 508 509 509 509 510 508 511 509 508 513 510 513 508 510 511 510 512 512 510 512 513 512 512 511 509 514 512 604 513 687 596 688 514 773 512 687 603 510 777 604 512 599 600 599 510 599 602 600 508 600 599 512 601 599 511 509 511 511 513 601 510 511 513 601 509 510 510 508 509 509 514 604 598 513 601 510 604 599 513 601 509 592 510 514 512 511 513 511 515 512 514 511 511 512 599 511 512 509 510 508 512 600 605 510 512 512 511 512 510 514 509 600 511 510 512 511 511 510 509 779 512 510 512 510 690 513 779 506 511 782 602 512 510 776 598 608 594 512 513 600 776 509 509 511 601 599 600 602 509 511 687 692 505 516 599 508 510 512 511 513 513 512 512 786 600 510 511 606 692 692 505 599 774 597 513 779 597 512 511 690 777 871 783 776 511 510 778 691 693 511 509 599 600 511 512 513 508 604 512 778 601 600 510 598 599 510 689 598 509 510 513 511 512 776 691 599 694 507 510 512 510 510 509 510 597 691 510 779 510 512 694 513 600 600 509 603 784 775 683 600 687 599 687 598 602 509 602 598 511 694 603 511 690 516 692 512 509 598 512 515 603 512 695 512 510 604 601 780 510 598 512 515 512 512 599 515 779 602 607 513 511 597 779 598 602 870 777 599 781 607 872 783 513 682 515 604 781 597 509 603 514 503 594 508 509 595 602 509 601 692 687 603 603 599 688 690 508 687 601 513 602 597 778 600 603 513 693 597 784 601 515 688 598 686 605 788 868 690 511 603 689 511 506 700 599 598 688 509 512 507 510 510 511 510 511 510 513 600 600 513 513 783 596 511 512 508 510 600 689 597 690 691 599 691 512 690 687 511 510 597 512 602 511 601 513 603 690 606 599 510 510 869 600 603 510 511 510 596 697 782 512 779 600 603 511 513 511 515 513 513 516 510 514 514 513 511 512 692 508 510 600 510 599 598 512 606 602 605 510 785 597 786 602 510 510 690 869 511 514 512 511 511 694 602 773 696 599 600 511 694 507 689 601 689 598 600 508 602 780 599 689 695 599 511 511 512 510 781 510 511 604 599 510 509 511 696 513 600 509 508 509 510 509 602 603 510 603 513 598 511 509 595 511 598 510 510 511 599 602 690 600 694 775 513 599 686 512 605 599 599 510 695 513 691 512 596 693 510 512 782 603 601 606 512 601 512 514 513 512 510 694 598 605 603 687 513 600 595 601 604 513 510 512 509 511 509 511 601 511 508 508 510 778 598 606 513 687 601 511 513 514 784 512 512 700 690 606 514 788 689 510 597 511 512 601 511 690 516 510 508 782 596 509 508 510 508 509 509 511 510 511 513 509 509 511 507 511 513 512 513 511 510 509 510 510 692 781 602 689 512 691 512 600 514 509 688 690 513 511 513 690 594 596 509 510 509 510 512 514 512 512 510 510 513 511 510 517 511 513 512 512 510 510 512 502 510 508 513 510 510 508 510 508 510 508 508 509 510 509 509 605 511 512 511 598 511 781 511 697 599 601 786 603 509 779 605 878 508 605 603 599 510 695 510 600 600 510 511 511 512 507 513 512 603 506 599 512 511 508 516 692 510 602 601 599 601 509 510 513 687 599 600 508 511 513 510 511 511 514 512 510 513 513

Tree=0
num_leaves=8
num_cat=0
split_feature=2569 1359 3138 1988 4176 3774 543
split_gain=3697.81 2831.87 2997.21 1057.32 334.49 188.929 47.4174
threshold=1.0000000180025095e-35 1.0000000180025095e-35 1.0000000180025095e-35 1.0000000180025095e-35 1.0000000180025095e-35 1.0000000180025095e-35 1.0000000180025095e-35
decision_type=2 2 2 2 2 2 2
left_child=1 2 -1 4 -2 -3 -5
right_child=3 5 -4 6 -6 -7 -8
leaf_value=3.5066777406206127 2.0659185321336926 2.7799269552401595 2.2629056139850618 3.6605503617387423 3.318869712070764 2.3029716188444613 4.3891829768196438
leaf_weight=46473 1535 1914 1116 125 130 618 84
leaf_count=46473 1535 1914 1116 125 130 618 84
internal_value=0 0.0515664 0.106395 -1.37917 -1.64529 -0.978934 0.740912
internal_weight=0 50121 47589 1874 1665 2532 209
internal_count=51995 50121 47589 1874 1665 2532 209
shrinkage=1


Tree=1
num_leaves=8
num_cat=0
split_feature=2609 2755 850 2569 2680 812 3099
split_gain=2335.49 1375.23 1405.25 180.047 101.517 35.0096 3.73294
threshold=1.0000000180025095e-35 1.0000000180025095e-35 1.0000000180025095e-35 1.0000000180025095e-35 1.0000000180025095e-35 1.0000000180025095e-35 1.0000000180025095e-35
decision_type=2 2 2 2 2 2 2
left_child=1 2 -1 -3 5 -2 -6
right_child=4 3 -4 -5 6 -7 -8
leaf_value=2.9434988925606297e-05 0.74216848771165078 -1.484362568775111 -1.2142303484742016 -0.69062369449552996 1.153875057626625 1.6423927438259125 1.4212281271334617
leaf_weight=49322 868 345 542 301 561 25 31
leaf_count=49322 868 345 542 301 561 25 31
internal_value=0 -0.0363398 -0.0175587 -1.48603 1.23604 1.02316 1.55717
internal_weight=0 50510 49864 646 1485 893 592
internal_count=51995 50510 49864 646 1485 893 592
shrinkage=0.75


Tree=2
num_leaves=7
num_cat=0
split_feature=1895 1184 2241 2918 3572 3607
split_gain=1142.88 1070.03 985.776 279.703 1.21585 1.69233
threshold=1.0000000180025095e-35 1.0000000180025095e-35 1.0000000180025095e-35 1.0000000180025095e-35 1.0000000180025095e-35 1.0000000180025095e-35
decision_type=2 2 2 2 2 2
left_child=1 2 -1 -3 5 -2
right_child=4 3 -4 -5 -6 -7
leaf_value=0.055533594209195417 2.0839211759877574 -0.26966836054300436 -0.56439831419273634 -1.5527338634446726 2.2182204580307006 1.8746093426431929
leaf_weight=43773 97 6483 1492 97 25 28
leaf_count=43773 97 6483 1492 97 25 28
internal_value=0 -0.00797468 0.0467997 -0.384777 2.75631 2.71605
internal_weight=0 51845 45265 6580 150 125
internal_count=51995 51845 45265 6580 150 125
shrinkage=0.75


Tree=3
num_leaves=8
num_cat=0
split_feature=4155 1987 2854 1863 1894 4260 3533
split_gain=951.021 866.136 836.881 57.6286 45.3319 14.9398 3.74398
threshold=1.0000000180025095e-35 1.0000000180025095e-35 1.0000000180025095e-35 1.0000000180025095e-35 1.0000000180025095e-35 1.0000000180025095e-35 1.0000000180025095e-35
decision_type=2 2 2 2 2 2 2
left_child=1 2 -1 -3 5 -2 -6
right_child=4 3 -4 -5 6 -7 -8
leaf_value=0.013116353204734869 0.907835260947634 -1.337618600499181 -0.62698599448836201 -0.76338808100202127 1.3996010496662417 0.37994779709895904 1.0577415701534068
leaf_weight=49882 350 239 1176 167 127 33 21
leaf_count=49882 350 239 1176 167 127 33 21
internal_value=0 -0.0137376 -0.00216918 -1.46856 1.33143 1.1498 1.80146
internal_weight=0 51464 51058 406 531 383 148
internal_count=51995 51464 51058 406 531 383 148
shrinkage=0.75


Tree=4
num_leaves=8
num_cat=0
split_feature=1555 3494 4146 1863 1434 1159 2759
split_gain=801.857 768.656 713.716 104.692 101.761 39.1774 9.11607
threshold=1.0000000180025095e-35 1.0000000180025095e-35 1.0000000180025095e-35 1.0000000180025095e-35 1.0000000180025095e-35 1.0000000180025095e-35 1.0000000180025095e-35
decision_type=2 2 2 2 2 2 2
left_child=1 2 -1 5 -3 -2 -5
right_child=3 4 -4 6 -6 -7 -8
leaf_value=0.0066173476862474885 -1.410968379151327 0.71226094846456756 -0.99178903822309983 -0.77522549803224983 2.1954173992077508 -0.37543677927359287 -0.52937168506952714
leaf_weight=50282 193 718 406 149 27 23 197
leaf_count=50282 193 718 406 149 27 23 197
internal_value=0 0.0129812 -0.00183956 -1.18801 1.02135 -1.73427 -0.846994
internal_weight=0 51433 50688 562 745 216 346
internal_count=51995 51433 50688 562 745 216 346
shrinkage=0.75


Tree=5
num_leaves=8
num_cat=0
split_feature=3344 3211 2238 1941 4176 1282 907
split_gain=627.015 586.496 584.122 210.274 158.11 5.13878 1.93494
threshold=1.0000000180025095e-35 1.0000000180025095e-35 1.0000000180025095e-35 1.0000000180025095e-35 1.0000000180025095e-35 1.0000000180025095e-35 1.0000000180025095e-35
decision_type=2 2 2 2 2 2 2
left_child=1 2 -1 -3 5 -2 -6
right_child=4 3 -4 -5 6 -7 -8
leaf_value=0.030541096759727927 -0.97509419254258578 -0.36009941192498385 -0.82688864005795115 -1.407919853925705 -0.086856957166200524 -1.1605815927569683 0.1236804695548238
leaf_weight=49392 298 1511 451 116 73 117 37
leaf_count=49392 298 1511 451 116 73 117 37
internal_value=0 0.0110907 0.030377 -0.579741 -1.08732 -1.36985 -0.0213864
internal_weight=0 51470 49843 1627 525 415 110
internal_count=51995 51470 49843 1627 525 415 110
shrinkage=0.75


Tree=6
num_leaves=7
num_cat=0
split_feature=3389 3548 481 2735 1794 1794
split_gain=566.776 570.363 534.899 11.4249 0.403722 0.369372
threshold=1.0000000180025095e-35 1.0000000180025095e-35 1.0000000180025095e-35 1.0000000180025095e-35 1.0000000180025095e-35 1.0000000180025095e-35
decision_type=2 2 2 2 2 2
left_child=1 2 -1 5 -3 -2
right_child=3 4 -4 -5 -6 -7
leaf_value=-0.011565012855791781 1.2866416068239646 1.2986417877865577 2.3950929739154301 1.7370912377771579 1.3838791653513907 1.1758381336927415
leaf_weight=51592 110 143 52 38 40 20
leaf_count=51592 110 143 52 38 40 20
internal_value=0 -0.0059443 -0.012189 1.83378 1.75636 1.69279
internal_weight=0 51827 51644 168 183 130
internal_count=51995 51827 51644 168 183 130
shrinkage=0.75


Tree=7
num_leaves=7
num_cat=0
split_feature=4062 4101 3116 3060 692 3177
split_gain=528.189 514.809 461.667 48.5999 26.6001 18.1453
threshold=1.0000000180025095e-35 1.0000000180025095e-35 1.0000000180025095e-35 1.0000000180025095e-35 1.0000000180025095e-35 1.0000000180025095e-35
decision_type=2 2 2 2 2 2
left_child=1 2 -1 5 -3 -2
right_child=3 4 -4 -5 -6 -7
leaf_value=-0.0047125373677739798 -1.6645492672920226 1.0525366421226257 1.8957646959461272 -2.180852472782135 0.38991202356723637 -0.93461418033682941
leaf_weight=51488 30 270 72 43 39 53
leaf_count=51488 30 270 72 43 39 53
internal_value=0 0.00496758 -0.00274487 -2.04495 1.29187 -1.59793
internal_weight=0 51869 51560 126 309 83
internal_count=51995 51869 51560 126 309 83
shrinkage=0.75


Tree=8
num_leaves=5
num_cat=0
split_feature=1424 1427 738 3522
split_gain=452.163 436.988 433.229 182.776
threshold=1.0000000180025095e-35 1.0000000180025095e-35 1.0000000180025095e-35 1.0000000180025095e-35
decision_type=2 2 2 2
left_child=1 2 -1 -3
right_child=-2 3 -4 -5
leaf_value=0.0070826376138814892 1.6177730105586887 0.010251573765916483 -0.87102469756215251 -1.4284883429574078
leaf_weight=51339 97 70 318 171
leaf_count=51339 97 70 318 171
internal_value=0 -0.00403161 0.00223602 -1.34746
internal_weight=0 51898 51657 241
internal_count=51995 51898 51657 241
shrinkage=0.75


Tree=9
num_leaves=5
num_cat=0
split_feature=841 3855 3576 1006
split_gain=400.098 390.477 365.188 13.991
threshold=1.0000000180025095e-35 1.0000000180025095e-35 1.0000000180025095e-35 1.0000000180025095e-35
decision_type=2 2 2 2
left_child=1 2 -1 -3
right_child=-2 3 -4 -5
leaf_value=-0.0093657839270294037 1.9859530660568885 0.97625458036334467 1.511178133758099 0.33719960094562601
leaf_weight=51594 57 234 89 21
leaf_count=51594 57 234 89 21
internal_value=0 -0.00290599 -0.00899647 1.2315
internal_weight=0 51938 51683 255
internal_count=51995 51938 51683 255
shrinkage=0.75


Tree=10
num_leaves=7
num_cat=0
split_feature=2885 4005 3246 3344 1184 1055
split_gain=359.123 321.748 316.746 41.1515 21.7838 2.15077
threshold=1.0000000180025095e-35 1.0000000180025095e-35 1.0000000180025095e-35 1.0000000180025095e-35 1.0000000180025095e-35 1.0000000180025095e-35
decision_type=2 2 2 2 2 2
left_child=1 2 -1 4 -2 -5
right_child=3 -3 -4 5 -6 -7
leaf_value=-0.0016073059684391787 -0.99756178509859916 2.0803828537464142 0.65548855779343285 -0.21702938853271023 -0.52076324672527519 -0.43069516347264342
leaf_weight=51152 206 42 416 53 73 53
leaf_count=51152 206 42 416 53 73 53
internal_value=0 0.007178 0.00492466 -0.962226 -1.16374 -0.431816
internal_weight=0 51610 51568 385 279 106
internal_count=51995 51610 51568 385 279 106
shrinkage=0.75


Tree=11
num_leaves=6
num_cat=0
split_feature=2100 3604 3325 1891 2491
split_gain=317.603 296.004 293.224 31.0148 14.0413
threshold=1.0000000180025095e-35 1.0000000180025095e-35 1.0000000180025095e-35 1.0000000180025095e-35 1.0000000180025095e-35
decision_type=2 2 2 2 2
left_child=1 2 -1 4 -2
right_child=3 -3 -4 -5 -6
leaf_value=-0.0053208015012804425 0.75792580264082221 2.4769302904605865 -1.8997402226795321 -0.248612602767737 0.49536375711635305
leaf_weight=51433 263 27 46 23 203
leaf_count=51433 263 27 46 23 203
internal_value=0 -0.00761531 -0.00935146 0.802114 0.858064
internal_weight=0 51506 51479 489 466
internal_count=51995 51506 51479 489 466
shrinkage=0.75


Tree=12
num_leaves=5
num_cat=0
split_feature=2694 3298 2213 1863
split_gain=291.04 288.264 282.137 36.0442
threshold=1.0000000180025095e-35 1.0000000180025095e-35 1.0000000180025095e-35 1.0000000180025095e-35
decision_type=2 2 2 2
left_child=1 2 -1 -3
right_child=-2 3 -4 -5
leaf_value=-5.5143155172796159e-05 1.8654881206915734 -0.85771567913654612 1.2868891082198388 0.16578476130962372
leaf_weight=51584 47 247 96 21
leaf_count=51584 47 247 96 21
internal_value=0 -0.00225039 0.00311395 -1.03669
internal_weight=0 51948 51680 268
internal_count=51995 51948 51680 268
shrinkage=0.75


Tree=13
num_leaves=8
num_cat=0
split_feature=1241 1851 3144 4176 1368 2609 3807
split_gain=276.692 265.077 253.726 14.5317 1.86257 0.525838 0.430468
threshold=1.0000000180025095e-35 1.0000000180025095e-35 1.0000000180025095e-35 1.0000000180025095e-35 1.0000000180025095e-35 1.0000000180025095e-35 1.0000000180025095e-35
decision_type=2 2 2 2 2 2 2
left_child=1 2 -1 5 -3 -2 -5
right_child=3 4 -4 6 -6 -7 -8
leaf_value=0.0038818868875937973 0.50990158204030822 -1.2977519991750619 -0.39229059668477084 0.86991918062971485 -1.5375620003404289 0.42843010681955251 0.75494762338124777
leaf_weight=50499 353 49 926 62 29 51 26
leaf_count=50499 353 49 926 62 29 51 26
internal_value=0 -0.00712991 -0.00433589 0.746365 -1.84922 0.666156 1.1146
internal_weight=0 51503 51425 492 78 404 88
internal_count=51995 51503 51425 492 78 404 88
shrinkage=0.75


Tree=14
num_leaves=8
num_cat=0
split_feature=3323 2265 3158 2483 2845 1901 1342
split_gain=264.803 259.791 248.43 79.8945 62.4419 21.9728 4.02995
threshold=1.0000000180025095e-35 1.0000000180025095e-35 1.0000000180025095e-35 1.0000000180025095e-35 1.0000000180025095e-35 1.0000000180025095e-35 1.0000000180025095e-35
decision_type=2 2 2 2 2 2 2
left_child=1 2 -1 5 -3 -2 -5
right_child=3 4 -4 6 -6 -7 -8
leaf_value=0.011823189064872518 -0.57624139580179323 -0.49193325671226235 -1.2946619505471573 -1.1514459007160096 -1.5510568031493355 -0.1814653570680613 -1.5258787247267636
leaf_weight=51060 214 396 82 61 34 126 22
leaf_count=51060 214 396 82 61 34 126 22
internal_value=0 0.00646315 0.0129712 -0.787984 -0.767571 -0.573256 -1.66759
internal_weight=0 51572 51142 423 430 340 83
internal_count=51995 51572 51142 423 430 340 83
shrinkage=0.75


Tree=15
num_leaves=7
num_cat=0
split_feature=3739 2398 692 1359 1863 1523
split_gain=235.09 229.957 216.238 127.826 8.50522 2.33967
threshold=1.0000000180025095e-35 1.0000000180025095e-35 1.0000000180025095e-35 1.0000000180025095e-35 1.0000000180025095e-35 1.0000000180025095e-35
decision_type=2 2 2 2 2 2
left_child=1 2 -1 -3 5 -2
right_child=4 3 -4 -5 -6 -7
leaf_value=0.0083001232413512441 -0.85455105120831354 -0.41479817391160001 0.4447548279865865 -0.069701313928753852 -0.61307984148152173 -1.0679728007316589
leaf_weight=48727 47 1077 647 1374 48 75
leaf_count=48727 47 1077 647 1374 48 75
internal_value=0 0.00385115 0.0186926 -0.295122 -1.17404 -1.31434
internal_weight=0 51825 49374 2451 170 122
internal_count=51995 51825 49374 2451 170 122
shrinkage=0.75


Tree=16
num_leaves=7
num_cat=0
split_feature=4136 612 2942 2129 2615 3841
split_gain=207.554 206.632 205.609 24.3121 21.3164 0.0203193
threshold=1.0000000180025095e-35 1.0000000180025095e-35 1.0000000180025095e-35 1.0000000180025095e-35 1.0000000180025095e-35 1.0000000180025095e-35
